{"learner":{"attributes":{"scikit_learn":"{\"_estimator_type\": \"regressor\"}"},"feature_names":[],"feature_types":[],"gradient_booster":{"model":{"gbtree_model_param":{"num_parallel_tree":"1","num_trees":"300"},"iteration_indptr":[0,1,2,3,4,5,6,7,8,9,10,11,12,13,14,15,16,17,18,19,20,21,22,23,24,25,26,27,28,29,30,31,32,33,34,35,36,37,38,39,40,41,42,43,44,45,46,47,48,49,50,51,52,53,54,55,56,57,58,59,60,61,62,63,64,65,66,67,68,69,70,71,72,73,74,75,76,77,78,79,80,81,82,83,84,85,86,87,88,89,90,91,92,93,94,95,96,97,98,99,100,101,102,103,104,105,106,107,108,109,110,111,112,113,114,115,116,117,118,119,120,121,122,123,124,125,126,127,128,129,130,131,132,133,134,135,136,137,138,139,140,141,142,143,144,145,146,147,148,149,150,151,152,153,154,155,156,157,158,159,160,161,162,163,164,165,166,167,168,169,170,171,172,173,174,175,176,177,178,179,180,181,182,183,184,185,186,187,188,189,190,191,192,193,194,195,196,197,198,199,200,201,202,203,204,205,206,207,208,209,210,211,212,213,214,215,216,217,218,219,220,221,222,223,224,225,226,227,228,229,230,231,232,233,234,235,236,237,238,239,240,241,242,243,244,245,246,247,248,249,250,251,252,253,254,255,256,257,258,259,260,261,262,263,264,265,266,267,268,269,270,271,272,273,274,275,276,277,278,279,280,281,282,283,284,285,286,287,288,289,290,291,292,293,294,295,296,297,298,299,300],"tree_info":[0,0,0,0,0,0,0,0,0,0,0,0,0,0,0,0,0,0,0,0,0,0,0,0,0,0,0,0,0,0,0,0,0,0,0,0,0,0,0,0,0,0,0,0,0,0,0,0,0,0,0,0,0,0,0,0,0,0,0,0,0,0,0,0,0,0,0,0,0,0,0,0,0,0,0,0,0,0,0,0,0,0,0,0,0,0,0,0,0,0,0,0,0,0,0,0,0,0,0,0,0,0,0,0,0,0,0,0,0,0,0,0,0,0,0,0,0,0,0,0,0,0,0,0,0,0,0,0,0,0,0,0,0,0,0,0,0,0,0,0,0,0,0,0,0,0,0,0,0,0,0,0,0,0,0,0,0,0,0,0,0,0,0,0,0,0,0,0,0,0,0,0,0,0,0,0,0,0,0,0,0,0,0,0,0,0,0,0,0,0,0,0,0,0,0,0,0,0,0,0,0,0,0,0,0,0,0,0,0,0,0,0,0,0,0,0,0,0,0,0,0,0,0,0,0,0,0,0,0,0,0,0,0,0,0,0,0,0,0,0,0,0,0,0,0,0,0,0,0,0,0,0,0,0,0,0,0,0,0,0,0,0,0,0,0,0,0,0,0,0,0,0,0,0,0,0,0,0,0,0,0,0,0,0,0,0,0,0,0,0,0,0,0,0,0,0,0,0,0,0],"trees":[{"base_weights":[-6.604005E-5,1.0805745E-3,-7.101736E-2,-1.0210731E-2,4.2699804E-3,-2.3927342E-3,-8.3666034E-2,-5.4445524E-2,-5.0822822E-3,7.284311E-3,-1.42987305E-2,-9.347643E-3,-3.8223544E-3,-6.459161E-2,1.2432791E-2,-1.7579969E-3,-8.83852E-2,8.219648E-3,-4.757227E-2,-1.0407176E-3,-3.1513333E-2,-2.267192E-3,-7.312142E-2,-7.802493E-4,2.6035958E-3,1.028461E-2,-1.2981021E-2,-1.0541406E-2,-2.4865738E-3,2.718986E-2,5.248803E-3,-6.471888E-3,-1.06232455E-2,-3.2275476E-2,4.4573224E-3,-2.0344924E-2,-4.866469E-2,-4.6916762E-3,-8.314971E-3,-5.8346405E-4,4.6642666E-4,1.0857908E-3,3.4433883E-2,1.8034142E-2,-2.1900324E-2,-4.2797644E-3,3.0775946E-2,2.5544683E-3,2.1865534E-2,1.1574745E-3,-1.9066429E-3,-3.6151297E-3,-1.1181448E-3,1.5196326E-2,-1.4676033E-2,-4.699914E-3,-3.3872876E-2,-1.1313875E-2,-5.787065E-3,2.3789924E-2,-7.5022927E-3,5.8589604E-2,7.818598E-3,-4.367509E-3,3.732535E-2,1.8176977E-3,-3.2334853E-2,2.6568562E-2,7.686797E-3,7.2994344E-3,-1.0251501E-2,5.5339284E-2,4.140457E-3,4.1193856E-4,2.3187373E-2,-8.8414885E-3,-4.673614E-3,4.519606E-3,-7.1751573E-3,-4.5138807E-3,-2.1472848E-3,-2.1166836E-4,-1.6739775E-3,1.0518355E-2,5.3003854E-3,1.21428445E-2,-2.2968326E-2,6.7154214E-2,2.9742464E-3,-1.4170188E-2,3.949868E-2,9.9342335E-3,-1.276016E-2,-4.235565E-4,4.114172E-2,-4.1116644E-3,2.754335E-3,-7.1036145E-2,-2.456656E-2,5.605788E-2,2.182598E-2,1.0919154E-2,-1.5239574E-2,-2.3068327E-3,-4.2231526E-2,1.2030388E-2,4.013279E-2,1.8868975E-2,-2.1305596E-2,1.1668489E-3,-5.2575306E-3,2.658207E-2,-4.3163303E-4,5.056817E-3,-1.416637E-2,-1.6043839E-4,7.0957304E-4,3.5090148E-4,-8.575431E-3,-7.0683756E-3,2.3028217E-2,2.0147717E-2,-1.5229727E-2,4.7753617E-4,-3.862543E-2,1.9456822E-3,7.0292056E-3,-5.4305666E-3,-2.9839242E-3,-1.7258801E-3,6.0542426E-3,1.6780334E-3,4.0276255E-4,-1.6855488E-3,-4.4509588E-4,1.7321028E-3,4.4173757E-3,8.046975E-3,-1.3148182E-2,-2.1138953E-3,-7.4630925E-3,2.8590716E-2,-2.8654875E-2,6.300033E-3,1.6544579E-3,3.0783648E-3,2.8712535E-2,7.010134E-3,2.5490547E-2,-2.6019892E-2,1.6649878E-2,-4.6384064E-3,4.0434558E-2,-7.2763644E-2,-1.8195236E-2,2.9228806E-2,6.399607E-3,4.172515E-2,4.13613E-3,-4.4893506E-3,-1.1128529E-2,-1.6025245E-3,-2.2805352E-3,3.0069225E-2,1.2852647E-2,4.1172662E-4,-3.320355E-4,8.8997476E-4,8.927001E-4,-1.7517438E-3,-4.6309596E-3,-1.2805054E-4,1.8068576E-4,-9.109119E-3,-1.6192779E-4,-1.6516651E-3,1.4264602E-5,1.2563628E-2,3.2968048E-3,1.0049501E-2,3.60233E-2,-1.9848779E-2,3.932767E-4,9.228751E-3,-2.1519884E-3,-4.2489342E-2,-5.1427507E-3,2.4349752E-3,-9.063778E-3,-6.1101356E-4,3.5213152E-4,1.2125219E-2,-1.1016948E-3,3.0274072E-3,-1.6364418E-2,3.5818722E-3,3.453347E-4,-3.0544985E-2,8.618358E-4,2.2134596E-2,-6.019768E-3,3.9652444E-2,1.3385463E-2,1.3872719E-2,-7.035943E-3,1.8997642E-3,3.4417048E-2,-3.3603556E-2,-2.9717225E-3,2.330941E-2,-5.8263075E-3,-2.8464042E-2,-8.2763843E-4,2.6654886E-4,4.7455276E-3,-1.9249419E-2,-8.8462895E-3,-4.13054E-3,-1.8346551E-3,4.7983904E-3,3.350961E-2,1.6885853E-3,4.6964427E-3,8.606628E-3,-1.9250391E-3,-2.2707626E-3,-3.8009738E-3,1.09094624E-4,-3.3996653E-4,1.1437213E-3,3.1913996E-3,1.5605129E-3,4.898456E-4,-1.2568059E-5,1.9684705E-4,-5.3948927E-4,-7.8761346E-5,-2.3997485E-4,-9.587966E-4,2.5804176E-3,-2.5566432E-4,1.3608903E-3,3.6686286E-4,1.3872458E-3,4.7909026E-3,4.0325336E-3,5.1055447E-4,-5.083363E-4,-2.2269294E-3,1.6574691E-3,1.56901E-3,-4.481659E-2,-3.790308E-4,2.3345654E-4,-1.0048691E-3,3.5276162E-4,1.2484658E-5,-1.0146323E-3,-2.3667995E-4,1.2948456E-3,3.592898E-4,-1.5464224E-4,1.1624396E-5,4.4463488E-4,9.476231E-6,-9.909663E-4,-2.0091769E-3,-3.4849348E-3,-3.3163868E-2,2.910183E-3,9.633714E-4,-1.2894801E-2,1.0309258E-2,1.2103241E-2,4.448486E-2,-1.7565526E-2,1.8643487E-2,-3.7990422E-3,1.770344E-2,5.1962817E-4,-3.199531E-2,-1.18891625E-2,2.0073915E-2,2.9566275E-2,8.2809385E-3,7.6903314E-3,-4.0252246E-2,4.375581E-3,-1.69234E-3,2.6545492E-3,1.1009895E-3,-1.02134235E-2,3.66752E-4,-3.4091875E-2,-4.464527E-3,-4.4063963E-2,1.5570786E-3,4.6253862E-4,-2.8749483E-3,-2.8814273E-3,7.362401E-3,-2.5076204E-4,8.069601E-4,3.7576444E-2,1.1914991E-3,-9.874254E-3,1.2448799E-2,-7.8691365E-3,5.2855946E-3,3.639947E-4,2.3067905E-5,1.961533E-5,5.524002E-4,4.1814474E-3,-2.4372437E-4,-4.8515084E-3,-2.2516975E-3,-7.743686E-4,6.7750335E-4,-3.476015E-2,-1.8896548E-3,1.9307134E-3,-1.8695708E-3,2.5063247E-4,1.163341E-3,1.4889677E-3,4.3535797E-4,2.0117462E-2,5.0789206E-3,-2.2631648E-3,-1.183582E-4,9.985207E-3,3.1465038E-3,5.8349413E-3,-2.0341927E-2,2.9443817E-2,1.1526545E-2,1.6383996E-2,-9.940312E-3,6.6863326E-4,-4.0203087E-2,-1.866474E-3,-2.0027948E-3,-2.3951437E-3,3.1707633E-2,3.3785418E-2,4.7747763E-3,1.9285949E-4,8.648617E-4,-1.4845066E-2,-4.4196956E-2,-1.08029555E-4,6.374256E-3,-2.867722E-4,-1.2452414E-3,-9.470898E-4,-3.8068984E-2,-8.6299016E-4,-1.9943544E-4,-4.8557315E-3,-1.3045273E-3,4.1693877E-3,-2.2707224E-2,1.0592515E-3,1.0337435E-2,3.8850268E-3,1.1145294E-3,-3.3565148E-4,-1.4713736E-3,1.6325137E-2,2.6213222E-3,-1.0342188E-3,-2.8105377E-4,8.8841806E-4,1.1246727E-3,7.852446E-5,5.051767E-4,-8.9370104E-4,-3.671822E-2,-5.9891545E-4,3.1546722E-4,2.8368115E-4,-3.937902E-5,2.3073554E-3,1.1904524E-4,1.2336919E-2,1.0216961E-3,-7.1650435E-4,1.6570603E-2,-3.4715355E-4,-2.834318E-2,4.0317334E-2,1.9090679E-2,-1.1103846E-2,1.42871E-2,-6.369647E-4,2.237318E-2,-2.547942E-2,-2.6317367E-3,-7.5591626E-3,8.6735515E-4,-2.2221254E-2,-5.171993E-3,-3.4170598E-3,2.5342652E-4,-1.0502898E-5,-4.632744E-4,3.716667E-3,1.3859709E-3,3.7221085E-2,1.22714015E-2,1.3065439E-2,-6.782246E-4,-1.646474E-3,-4.1831852E-4,-4.615962E-3,-1.6380204E-3,1.7047371E-4,6.9672125E-4,-1.0251068E-3,-4.0020854E-3,4.9008548E-5,-7.892386E-5,7.849569E-3,-5.7723722E-3,-5.4472155E-4,-2.4183823E-3,2.0911393E-4,-1.0182059E-4,1.1163814E-3,3.102767E-4,3.570786E-4,1.8518929E-3,4.175199E-4,-2.5740312E-4,1.9134278E-4,-2.2641872E-5,-5.1278947E-4,-3.8477395E-2,1.402284E-3,5.880846E-4,3.1648297E-4,-2.7038524E-4,-8.566758E-4,3.280273E-3,1.9115346E-3,5.9575844E-4,-1.8531986E-3,-3.8517844E-3,4.7390543E-2,2.1131251E-2,1.1902741E-2,3.467419E-2,7.7093355E-3,-2.295557E-2,2.4638839E-2,9.882574E-3,-3.3501384E-3,1.6609672E-3,3.0147152E-2,9.521977E-3,-1.4483877E-2,-3.054115E-3,6.2837084E-3,-1.2632836E-2,-1.8651153E-4,-9.4736286E-4,-3.466723E-4,-2.4405227E-3,-3.8580556E-4,-8.265383E-5,1.8075876E-3,3.9171255E-3,-3.605513E-5,1.4436819E-3,6.495115E-4,1.9673367E-3,-1.7314213E-3,1.1900482E-2,-1.2447571E-2,4.150144E-3,-4.0983405E-2,-1.6247055E-3,8.6201896E-4,5.526123E-4,5.595639E-3,2.8383543E-3,9.327295E-4,2.3511355E-3,-1.9661356E-3,1.5492844E-2,3.705021E-3,9.021028E-4,-1.902543E-5,9.7317965E-4,-5.083447E-4,-2.5087015E-3,-1.2516688E-3,2.6708515E-2,1.4075404E-2,-8.760503E-3,-3.8364605E-4,-9.455863E-5,2.5328773E-4,2.354014E-5,4.387536E-3,2.0696044E-3,1.2675475E-2,-7.853008E-4,-1.570027E-3,-4.2009584E-4,1.2996357E-2,-7.070098E-3,-1.4190726E-2,3.8098684E-4,1.1544685E-2,-8.746907E-3,1.5044493E-2,-3.7351244E-3,-1.6089583E-2,6.798502E-4,1.0487287E-3,-1.8224999E-3,-5.120238E-3,-3.2910134E-3,-7.429952E-6,1.823104E-4,-3.193016E-4,1.4706925E-4,2.1199647E-2,2.4482291E-3,1.8603593E-2,3.4595825E-2,-1.2804437E-3,1.8330274E-2,-1.7746665E-3,-2.0490887E-3,1.3624459E-3,3.0162968E-4,3.353908E-4,1.4766468E-3,-9.805345E-3,3.3030682E-4,-1.8384109E-3,-9.271848E-4,1.4222821E-3,-2.2620652E-4,3.2465046E-3,-1.2669582E-2,-5.2444492E-3,1.7047865E-2,-8.0351345E-3,6.1099365E-4,-2.041562E-3,-9.0819475E-4,2.5683732E-4,-8.057817E-4,2.2838454E-4,-4.446634E-3,2.351893E-3,7.1752525E-4,-2.3425157E-4,5.4292306E-3,1.5542075E-5,2.001073E-3,1.3436255E-3,3.7805033E-3,4.5679295E-3,-6.1104144E-3,2.1130245E-2,-1.0579447E-3,4.3754582E-4,-4.9198475E-3,-1.0883162E-3,-2.7470387E-4,5.220155E-4,-1.337223E-4,-1.464203E-3,-3.1865246E-4,-6.293071E-4,-1.0492916E-4,1.9257633E-2,-3.787369E-3,-9.849804E-4,-2.937198E-4,1.3593562E-5,-1.3446082E-4,-5.194377E-4,-1.1017022E-4,6.332088E-4,1.3603289E-4,5.1279255E-4,8.839741E-5,1.575715E-4,-7.6540554E-4,1.4064888E-2,2.7783867E-2,1.0359669E-3,-3.4971788E-4,-2.6598186E-4,-6.29327E-4,6.3572533E-4,2.0997798E-2,-6.67247E-5,-4.604994E-4,1.6413838E-2,6.239856E-4,2.957701E-2,9.5568615E-4,2.3254775E-4,-1.6902915E-5,2.1666933E-2,2.1347105E-4,2.0343345E-3,1.0923791E-3,3.1456214E-3,1.1574792E-3,8.748362E-4,2.2409924E-3],"categories":[],"categories_nodes":[],"categories_segments":[],"categories_sizes":[],"default_left":[0,0,0,0,0,0,0,0,0,0,0,0,0,0,0,0,0,0,0,0,0,0,0,0,0,0,0,0,0,0,0,0,0,0,0,0,0,0,0,0,0,0,0,0,0,0,0,0,0,0,0,0,0,0,0,0,0,0,0,0,0,0,0,0,0,0,0,0,0,0,0,0,0,0,0,0,0,0,0,0,0,0,0,0,0,0,0,0,0,0,0,0,0,0,0,0,0,0,0,0,0,0,0,0,0,0,0,0,0,0,0,0,0,0,0,0,0,0,0,0,0,0,0,0,0,0,0,0,0,0,0,0,0,0,0,0,0,0,0,0,0,0,0,0,0,0,0,0,0,0,0,0,0,0,0,0,0,0,0,0,0,0,0,0,0,0,0,0,0,0,0,0,0,0,0,0,0,0,0,0,0,0,0,0,0,0,0,0,0,0,0,0,0,0,0,0,0,0,0,0,0,0,0,0,0,0,0,0,0,0,0,0,0,0,0,0,0,0,0,0,0,0,0,0,0,0,0,0,0,0,0,0,0,0,0,0,0,0,0,0,0,0,0,0,0,0,0,0,0,0,0,0,0,0,0,0,0,0,0,0,0,0,0,0,0,0,0,0,0,0,0,0,0,0,0,0,0,0,0,0,0,0,0,0,0,0,0,0,0,0,0,0,0,0,0,0,0,0,0,0,0,0,0,0,0,0,0,0,0,0,0,0,0,0,0,0,0,0,0,0,0,0,0,0,0,0,0,0,0,0,0,0,0,0,0,0,0,0,0,0,0,0,0,0,0,0,0,0,0,0,0,0,0,0,0,0,0,0,0,0,0,0,0,0,0,0,0,0,0,0,0,0,0,0,0,0,0,0,0,0,0,0,0,0,0,0,0,0,0,0,0,0,0,0,0,0,0,0,0,0,0,0,0,0,0,0,0,0,0,0,0,0,0,0,0,0,0,0,0,0,0,0,0,0,0,0,0,0,0,0,0,0,0,0,0,0,0,0,0,0,0,0,0,0,0,0,0,0,0,0,0,0,0,0,0,0,0,0,0,0,0,0,0,0,0,0,0,0,0,0,0,0,0,0,0,0,0,0,0,0,0,0,0,0,0,0,0,0,0,0,0,0,0,0,0,0,0,0,0,0,0,0,0,0,0,0,0,0,0,0,0,0,0,0,0,0,0,0,0,0,0,0,0,0,0,0,0,0,0,0,0,0,0,0,0,0,0,0,0,0,0,0,0,0,0,0,0,0,0,0,0,0,0,0,0,0,0,0,0,0,0,0,0,0,0,0,0,0,0,0,0,0,0,0,0,0,0,0,0,0,0,0,0,0,0,0,0,0,0,0,0,0,0,0,0,0,0,0,0,0,0,0,0,0,0,0,0,0,0,0,0,0,0,0,0,0,0,0,0],"id":0,"left_children":[1,3,5,7,9,-1,11,13,15,17,19,-1,-1,21,23,25,27,29,31,33,35,-1,37,39,-1,41,43,-1,-1,45,47,-1,49,51,53,55,57,-1,-1,-1,-1,59,61,63,65,-1,67,69,71,-1,-1,-1,-1,73,75,77,79,81,-1,83,85,87,89,91,93,95,97,99,-1,101,103,105,107,109,111,113,-1,115,117,-1,-1,-1,-1,119,-1,121,123,125,-1,127,129,131,133,-1,135,137,-1,139,141,143,145,147,149,151,153,-1,155,157,159,-1,161,163,165,167,169,-1,-1,171,173,175,177,179,181,183,185,-1,-1,187,-1,189,-1,-1,-1,-1,-1,-1,-1,191,193,-1,-1,195,197,-1,-1,199,201,203,205,207,209,211,213,215,217,219,-1,221,223,-1,225,-1,227,229,231,-1,-1,233,-1,-1,235,-1,-1,237,-1,-1,239,241,-1,243,245,247,-1,249,-1,251,253,255,257,-1,-1,259,261,263,265,-1,-1,267,-1,269,271,273,275,277,279,281,283,285,287,289,291,293,295,-1,-1,297,-1,-1,299,301,303,-1,-1,305,-1,-1,307,-1,-1,-1,-1,-1,-1,-1,-1,-1,-1,-1,-1,309,-1,-1,-1,-1,311,-1,-1,-1,-1,-1,313,315,-1,-1,-1,-1,-1,-1,-1,-1,-1,-1,-1,-1,-1,-1,-1,317,319,-1,-1,321,323,325,327,329,331,333,335,337,339,341,343,345,-1,347,349,351,-1,-1,-1,353,-1,355,357,359,361,-1,-1,-1,363,-1,-1,365,-1,367,369,371,373,-1,-1,-1,-1,375,-1,-1,-1,-1,-1,377,379,381,-1,-1,-1,-1,-1,383,-1,-1,-1,385,-1,387,389,391,393,395,397,399,401,-1,403,405,407,409,411,-1,-1,413,415,-1,417,-1,-1,-1,419,-1,421,-1,-1,423,425,427,429,-1,-1,-1,-1,431,433,-1,-1,-1,435,-1,-1,-1,437,-1,-1,-1,-1,-1,-1,439,441,443,445,-1,447,449,451,453,455,457,459,461,463,465,-1,467,-1,469,-1,-1,-1,-1,-1,471,473,475,-1,-1,-1,-1,-1,-1,-1,-1,-1,-1,-1,477,479,-1,-1,-1,-1,-1,-1,-1,-1,-1,-1,-1,-1,-1,481,-1,-1,-1,-1,-1,483,-1,-1,-1,-1,485,487,489,491,493,495,497,499,501,503,505,507,509,-1,511,513,-1,-1,-1,-1,-1,-1,-1,-1,-1,-1,-1,-1,515,517,519,521,523,-1,525,-1,-1,-1,-1,-1,527,529,-1,-1,-1,-1,-1,-1,-1,531,533,535,-1,-1,-1,-1,-1,-1,537,-1,-1,-1,539,541,543,-1,545,547,549,551,553,555,-1,557,-1,-1,-1,-1,-1,-1,559,561,563,565,567,569,-1,571,-1,-1,-1,-1,573,-1,-1,-1,-1,-1,575,577,579,581,583,-1,-1,-1,-1,585,-1,587,-1,-1,-1,589,-1,-1,-1,-1,591,593,595,597,-1,599,-1,-1,-1,-1,-1,-1,-1,-1,601,603,-1,-1,-1,-1,-1,-1,-1,-1,-1,-1,-1,-1,605,607,609,-1,-1,-1,-1,611,-1,-1,613,-1,615,-1,-1,-1,617,-1,-1,-1,-1,-1,-1,-1],"loss_changes":[8.696261E-2,3.792881E-2,8.123741E-3,5.235385E-2,4.605736E-2,0E0,2.2225082E-3,1.7088324E-2,5.772146E-2,3.6666777E-2,2.6213815E-2,0E0,0E0,5.851105E-3,7.392712E-4,2.7434705E-2,6.032113E-3,3.9082143E-2,6.9150794E-3,1.1478038E-2,8.587591E-3,0E0,5.662739E-4,1.0977046E-4,0E0,2.1732803E-2,2.9441485E-2,0E0,0E0,2.490937E-2,2.694108E-2,0E0,1.1577975E-3,4.1334424E-4,1.1934993E-2,6.613441E-3,5.8784112E-3,0E0,0E0,0E0,0E0,1.4217398E-2,1.6900517E-2,1.0534735E-2,2.0352662E-2,0E0,1.5411139E-2,3.167205E-2,4.9610153E-2,0E0,0E0,0E0,0E0,4.361729E-3,3.5149613E-3,3.9755774E-4,1.4056042E-3,2.1408236E-4,0E0,7.1967803E-3,1.6382016E-2,1.461573E-3,1.0312195E-2,1.5671167E-3,2.2362135E-3,4.0792036E-3,1.539154E-2,1.0524336E-2,0E0,3.1168664E-2,3.5726547E-2,2.382049E-2,2.1389842E-2,9.548089E-4,1.9357791E-3,1.4777667E-3,0E0,7.4488904E-5,1.4001026E-4,0E0,0E0,0E0,0E0,3.4628857E-3,0E0,5.565579E-3,1.1031276E-2,1.290068E-4,0E0,1.0704305E-3,5.309605E-3,1.346012E-4,1.9720825E-4,0E0,1.0156818E-4,2.5229817E-3,0E0,3.6705285E-5,1.1468127E-2,1.9751973E-3,9.46549E-3,1.8504146E-2,1.8653484E-2,1.1548187E-2,1.9224647E-2,0E0,4.6345927E-3,1.1949931E-2,4.541572E-3,0E0,2.8400822E-4,6.189393E-4,6.62328E-5,8.8813846E-5,3.6623073E-4,0E0,0E0,9.439461E-6,2.6086404E-5,4.6866672E-4,5.219481E-4,2.6839706E-3,6.0913607E-4,2.7011558E-3,2.1102224E-3,0E0,0E0,2.2211032E-4,0E0,9.053085E-5,0E0,0E0,0E0,0E0,0E0,0E0,0E0,3.8646325E-4,7.258605E-4,0E0,0E0,6.0307793E-4,3.5039745E-3,0E0,0E0,3.774144E-3,8.523785E-3,2.5159635E-2,1.4464855E-2,6.8917256E-3,2.2313404E-3,9.872984E-3,1.4645057E-3,8.378737E-3,6.351846E-3,1.8262621E-3,0E0,1.0289252E-3,2.570317E-3,0E0,1.2712327E-3,0E0,3.766699E-5,1.849411E-4,5.4921606E-5,0E0,0E0,4.628918E-6,0E0,0E0,1.0431206E-5,0E0,0E0,9.11887E-6,0E0,0E0,3.9583916E-5,5.860289E-6,0E0,1.9488251E-4,7.251827E-4,6.549666E-5,0E0,5.366741E-4,0E0,1.2711287E-3,1.3350912E-4,7.1320137E-6,1.2234581E-5,0E0,0E0,2.6464695E-6,2.3463654E-6,1.2062408E-5,6.554765E-5,0E0,0E0,3.0025728E-3,0E0,3.293173E-4,1.8168746E-3,3.5885908E-3,4.2332676E-3,1.1913981E-2,1.6234701E-2,5.2507026E-3,9.28865E-3,8.546054E-3,1.2016289E-3,1.4556153E-4,2.0406001E-4,1.8737745E-3,9.863719E-3,0E0,0E0,1.0402262E-3,0E0,0E0,2.9416056E-3,1.15833485E-4,9.574257E-4,0E0,0E0,1.5430567E-3,0E0,0E0,4.4821505E-4,0E0,0E0,0E0,0E0,0E0,0E0,0E0,0E0,0E0,0E0,0E0,0E0,6.6291923E-6,0E0,0E0,0E0,0E0,2.2495311E-5,0E0,0E0,0E0,0E0,0E0,7.2987736E-5,1.4471263E-4,0E0,0E0,0E0,0E0,0E0,0E0,0E0,0E0,0E0,0E0,0E0,0E0,0E0,0E0,0E0,2.7093696E-4,1.9312166E-3,0E0,0E0,9.821119E-4,2.2504246E-5,6.474019E-5,2.9723868E-3,3.051852E-4,2.0170794E-3,5.2186577E-3,1.010336E-2,1.1280865E-2,5.3888466E-3,7.664482E-4,2.4285323E-3,4.7548264E-3,0E0,1.0927266E-5,1.9497201E-3,9.412227E-5,0E0,0E0,0E0,1.3630808E-5,0E0,8.144956E-4,6.93417E-5,6.344635E-5,5.8627883E-3,0E0,0E0,0E0,1.5781872E-4,0E0,0E0,4.693866E-6,0E0,7.6783064E-5,6.048151E-4,7.101428E-5,4.990193E-5,0E0,0E0,0E0,0E0,7.856252E-6,0E0,0E0,0E0,0E0,0E0,1.593262E-3,8.0931466E-5,9.542019E-6,0E0,0E0,0E0,0E0,0E0,3.641816E-4,0E0,0E0,0E0,2.8250995E-4,0E0,1.4888891E-3,1.5214174E-3,4.746489E-3,6.1559966E-3,2.7666762E-3,4.589264E-3,3.948789E-4,2.1642204E-3,0E0,4.7159367E-5,2.0010877E-5,6.94762E-5,2.4998449E-3,8.5513596E-4,0E0,0E0,1.7468818E-5,4.4498593E-4,0E0,4.7356734E-6,0E0,0E0,0E0,1.3271347E-4,0E0,1.6068393E-6,0E0,0E0,3.082072E-3,9.7640324E-5,1.0704023E-5,1.2328383E-6,0E0,0E0,0E0,0E0,2.6963768E-4,5.9184727E-5,0E0,0E0,0E0,3.630277E-6,0E0,0E0,0E0,1.7477423E-3,0E0,0E0,0E0,0E0,0E0,0E0,3.7262565E-5,4.0494626E-5,4.673613E-4,1.0217796E-4,0E0,8.479273E-5,2.119843E-3,2.6116427E-3,2.629627E-3,3.6776327E-3,5.544198E-5,1.711037E-3,2.8118026E-4,2.6651442E-3,1.5033787E-5,0E0,2.4306914E-4,0E0,2.5232112E-6,0E0,0E0,0E0,0E0,0E0,5.613789E-4,1.9667926E-4,8.930033E-5,0E0,0E0,0E0,0E0,0E0,0E0,0E0,0E0,0E0,0E0,0E0,2.3881218E-3,1.575059E-3,0E0,0E0,0E0,0E0,0E0,0E0,0E0,0E0,0E0,0E0,0E0,0E0,0E0,1.1725537E-3,0E0,0E0,0E0,0E0,0E0,4.9546732E-5,0E0,0E0,0E0,0E0,1.0167398E-3,5.4596458E-6,1.0262749E-3,1.533879E-4,8.173456E-5,1.3912539E-4,2.2567986E-3,4.9696774E-3,1.0498406E-6,5.6185827E-6,6.4891577E-4,5.9266854E-4,9.092153E-6,0E0,1.5261162E-3,4.126879E-4,0E0,0E0,0E0,0E0,0E0,0E0,0E0,0E0,0E0,0E0,0E0,0E0,1.8706087E-3,2.170009E-3,6.802811E-4,3.976081E-4,7.074401E-4,0E0,5.5347455E-6,0E0,0E0,0E0,0E0,0E0,2.5778823E-5,1.1391875E-3,0E0,0E0,0E0,0E0,0E0,0E0,0E0,8.906182E-4,3.3556633E-3,6.8735384E-4,0E0,0E0,0E0,0E0,0E0,0E0,3.2235752E-5,0E0,0E0,0E0,1.3822457E-4,2.0262678E-4,9.7692944E-5,0E0,2.910074E-4,6.527329E-4,1.552674E-3,3.87765E-4,1.4805468E-4,1.3292146E-5,0E0,7.4809024E-5,0E0,0E0,0E0,0E0,0E0,0E0,1.8903753E-4,9.8405355E-5,3.6031613E-4,2.3900159E-4,3.668816E-4,2.193815E-3,0E0,1.6907319E-4,0E0,0E0,0E0,0E0,8.141331E-6,0E0,0E0,0E0,0E0,0E0,4.3167205E-5,1.4039129E-4,1.0993266E-5,1.5922915E-3,2.657561E-5,0E0,0E0,0E0,0E0,1.705047E-6,0E0,4.2819374E-6,0E0,0E0,0E0,6.0808306E-6,0E0,0E0,0E0,0E0,7.845039E-6,9.511295E-5,1.254579E-3,3.4268203E-5,0E0,1.884895E-6,0E0,0E0,0E0,0E0,0E0,0E0,0E0,0E0,5.3997524E-4,7.1316936E-6,0E0,0E0,0E0,0E0,0E0,0E0,0E0,0E0,0E0,0E0,0E0,0E0,2.468119E-4,2.729576E-4,6.608495E-6,0E0,0E0,0E0,0E0,2.8191693E-4,0E0,0E0,7.979805E-5,0E0,1.4334824E-4,0E0,0E0,0E0,4.3909997E-5,0E0,0E0,0E0,0E0,0E0,0E0,0E0],"parents":[2147483647,0,0,1,1,2,2,3,3,4,4,6,6,7,7,8,8,9,9,10,10,13,13,14,14,15,15,16,16,17,17,18,18,19,19,20,20,22,22,23,23,25,25,26,26,29,29,30,30,32,32,33,33,34,34,35,35,36,36,41,41,42,42,43,43,44,44,46,46,47,47,48,48,53,53,54,54,55,55,56,56,57,57,59,59,60,60,61,61,62,62,63,63,64,64,65,65,66,66,67,67,69,69,70,70,71,71,72,72,73,73,74,74,75,75,77,77,78,78,83,83,85,85,86,86,87,87,89,89,90,90,91,91,92,92,94,94,95,95,97,97,98,98,99,99,100,100,101,101,102,102,103,103,104,104,106,106,107,107,108,108,110,110,111,111,112,112,113,113,114,114,117,117,118,118,119,119,120,120,121,121,122,122,123,123,124,124,127,127,129,129,137,137,138,138,141,141,142,142,145,145,146,146,147,147,148,148,149,149,150,150,151,151,152,152,153,153,154,154,155,155,157,157,158,158,160,160,162,162,163,163,164,164,167,167,170,170,173,173,176,176,177,177,179,179,180,180,181,181,183,183,185,185,186,186,187,187,188,188,191,191,192,192,193,193,194,194,197,197,199,199,200,200,201,201,202,202,203,203,204,204,205,205,206,206,207,207,208,208,209,209,210,210,211,211,212,212,215,215,218,218,219,219,220,220,223,223,226,226,239,239,244,244,250,250,251,251,267,267,268,268,271,271,272,272,273,273,274,274,275,275,276,276,277,277,278,278,279,279,280,280,281,281,282,282,283,283,285,285,286,286,287,287,291,291,293,293,294,294,295,295,296,296,300,300,303,303,305,305,306,306,307,307,308,308,313,313,319,319,320,320,321,321,327,327,331,331,333,333,334,334,335,335,336,336,337,337,338,338,339,339,340,340,342,342,343,343,344,344,345,345,346,346,349,349,350,350,352,352,356,356,358,358,361,361,362,362,363,363,364,364,369,369,370,370,374,374,378,378,385,385,386,386,387,387,388,388,390,390,391,391,392,392,393,393,394,394,395,395,396,396,397,397,398,398,399,399,401,401,403,403,409,409,410,410,411,411,423,423,424,424,438,438,444,444,449,449,450,450,451,451,452,452,453,453,454,454,455,455,456,456,457,457,458,458,459,459,460,460,461,461,463,463,464,464,477,477,478,478,479,479,480,480,481,481,483,483,489,489,490,490,498,498,499,499,500,500,507,507,511,511,512,512,513,513,515,515,516,516,517,517,518,518,519,519,520,520,522,522,529,529,530,530,531,531,532,532,533,533,534,534,536,536,541,541,547,547,548,548,549,549,550,550,551,551,556,556,558,558,562,562,567,567,568,568,569,569,570,570,572,572,581,581,582,582,595,595,596,596,597,597,602,602,605,605,607,607,611,611],"right_children":[2,4,6,8,10,-1,12,14,16,18,20,-1,-1,22,24,26,28,30,32,34,36,-1,38,40,-1,42,44,-1,-1,46,48,-1,50,52,54,56,58,-1,-1,-1,-1,60,62,64,66,-1,68,70,72,-1,-1,-1,-1,74,76,78,80,82,-1,84,86,88,90,92,94,96,98,100,-1,102,104,106,108,110,112,114,-1,116,118,-1,-1,-1,-1,120,-1,122,124,126,-1,128,130,132,134,-1,136,138,-1,140,142,144,146,148,150,152,154,-1,156,158,160,-1,162,164,166,168,170,-1,-1,172,174,176,178,180,182,184,186,-1,-1,188,-1,190,-1,-1,-1,-1,-1,-1,-1,192,194,-1,-1,196,198,-1,-1,200,202,204,206,208,210,212,214,216,218,220,-1,222,224,-1,226,-1,228,230,232,-1,-1,234,-1,-1,236,-1,-1,238,-1,-1,240,242,-1,244,246,248,-1,250,-1,252,254,256,258,-1,-1,260,262,264,266,-1,-1,268,-1,270,272,274,276,278,280,282,284,286,288,290,292,294,296,-1,-1,298,-1,-1,300,302,304,-1,-1,306,-1,-1,308,-1,-1,-1,-1,-1,-1,-1,-1,-1,-1,-1,-1,310,-1,-1,-1,-1,312,-1,-1,-1,-1,-1,314,316,-1,-1,-1,-1,-1,-1,-1,-1,-1,-1,-1,-1,-1,-1,-1,318,320,-1,-1,322,324,326,328,330,332,334,336,338,340,342,344,346,-1,348,350,352,-1,-1,-1,354,-1,356,358,360,362,-1,-1,-1,364,-1,-1,366,-1,368,370,372,374,-1,-1,-1,-1,376,-1,-1,-1,-1,-1,378,380,382,-1,-1,-1,-1,-1,384,-1,-1,-1,386,-1,388,390,392,394,396,398,400,402,-1,404,406,408,410,412,-1,-1,414,416,-1,418,-1,-1,-1,420,-1,422,-1,-1,424,426,428,430,-1,-1,-1,-1,432,434,-1,-1,-1,436,-1,-1,-1,438,-1,-1,-1,-1,-1,-1,440,442,444,446,-1,448,450,452,454,456,458,460,462,464,466,-1,468,-1,470,-1,-1,-1,-1,-1,472,474,476,-1,-1,-1,-1,-1,-1,-1,-1,-1,-1,-1,478,480,-1,-1,-1,-1,-1,-1,-1,-1,-1,-1,-1,-1,-1,482,-1,-1,-1,-1,-1,484,-1,-1,-1,-1,486,488,490,492,494,496,498,500,502,504,506,508,510,-1,512,514,-1,-1,-1,-1,-1,-1,-1,-1,-1,-1,-1,-1,516,518,520,522,524,-1,526,-1,-1,-1,-1,-1,528,530,-1,-1,-1,-1,-1,-1,-1,532,534,536,-1,-1,-1,-1,-1,-1,538,-1,-1,-1,540,542,544,-1,546,548,550,552,554,556,-1,558,-1,-1,-1,-1,-1,-1,560,562,564,566,568,570,-1,572,-1,-1,-1,-1,574,-1,-1,-1,-1,-1,576,578,580,582,584,-1,-1,-1,-1,586,-1,588,-1,-1,-1,590,-1,-1,-1,-1,592,594,596,598,-1,600,-1,-1,-1,-1,-1,-1,-1,-1,602,604,-1,-1,-1,-1,-1,-1,-1,-1,-1,-1,-1,-1,606,608,610,-1,-1,-1,-1,612,-1,-1,614,-1,616,-1,-1,-1,618,-1,-1,-1,-1,-1,-1,-1],"split_conditions":[2.2280974E0,-7.6330006E-1,-1.1583782E0,-1.19671E0,7.088894E-1,-2.3927342E-3,1.6407548E0,-5.6060877E-2,1.6342261E0,2.0265203E0,2.0045272E-1,-9.347643E-3,-3.8223544E-3,-1.3437092E0,-1.2169161E0,2.408528E-1,8.5006803E-1,-1.1007264E0,-1.2968863E0,4.1080382E-1,1.0159963E0,-2.267192E-3,-1.4537382E0,-1.3748854E0,2.6035958E-3,2.8044114E-1,-1.5720507E0,-1.0541406E-2,-2.4865738E-3,-1.1248965E0,5.4934514E-1,-6.471888E-3,-2.499809E-1,4.4352648E-1,8.0557084E-1,7.559534E-1,3.3807904E-1,-4.6916762E-3,-8.314971E-3,-5.8346405E-4,4.6642666E-4,-1.672267E0,2.2046413E-1,-1.2959971E0,1.2345857E-1,-4.2797644E-3,1.2880629E0,5.3616226E-1,-2.1878329E-1,1.1574745E-3,-1.9066429E-3,-3.6151297E-3,-1.1181448E-3,-3.9584488E-1,1.1664528E0,-7.4605376E-1,-1.101952E0,2.9135364E-1,-5.787065E-3,5.6332916E-1,-2.4507624E-1,-6.3720477E-1,6.618215E-1,-8.9703244E-1,-1.6552216E0,1.300943E-1,-1.3574182E0,-1.5400542E0,7.686797E-3,6.4681345E-1,9.567847E-1,2.922168E-1,5.2969986E-1,-2.2165106E-1,8.78349E-1,-4.0803406E-1,-4.673614E-3,3.9155456E-1,-1.1201398E0,-4.5138807E-3,-2.1472848E-3,-2.1166836E-4,-1.6739775E-3,-5.9105456E-1,5.3003854E-3,-4.1562352E-1,-1.1151569E0,-2.079022E0,2.9742464E-3,8.6878145E-1,-6.5833604E-1,3.2720566E-1,5.778274E-1,-4.235565E-4,4.0940917E-1,-6.832587E-2,2.754335E-3,-9.475143E-1,-1.5400542E0,-1.0549731E0,2.85614E-1,-2.6257567E-2,4.7404286E-1,-1.16274744E-1,3.1678596E-1,1.2030388E-2,1.2452292E0,4.1399628E-2,-1.732932E-1,1.1668489E-3,2.613561E-1,6.6653436E-1,3.3858553E-1,6.7679334E-1,7.5183886E-1,-1.6043839E-4,7.0957304E-4,3.881951E-1,1.9057894E0,5.35361E-1,7.94418E-1,-9.6729356E-1,-3.281012E-2,9.777306E-1,6.097563E-1,1.9456822E-3,7.0292056E-3,-5.938228E-1,-2.9839242E-3,-1.2326018E-1,6.0542426E-3,1.6780334E-3,4.0276255E-4,-1.6855488E-3,-4.4509588E-4,1.7321028E-3,4.4173757E-3,-2.4376977E-2,-1.13922566E-1,-2.1138953E-3,-7.4630925E-3,8.2480454E-1,7.327102E-1,6.300033E-3,1.6544579E-3,-1.0858502E0,4.6026248E-1,-4.0120837E-1,-2.8475316E-2,3.9297798E-1,5.04366E-1,-3.2519558E-1,3.3615783E-1,-3.0069554E-1,-6.281341E-1,-1.8898758E-1,6.399607E-3,1.2669324E0,3.1307706E-1,-4.4893506E-3,-4.6966556E-1,-1.6025245E-3,-2.6095873E-1,-5.577472E-1,-3.3711337E-2,4.1172662E-4,-3.320355E-4,6.3891506E-1,8.927001E-4,-1.7517438E-3,7.073327E-1,-1.2805054E-4,1.8068576E-4,-1.5440502E0,-1.6192779E-4,-1.6516651E-3,-1.4651147E0,2.5719233E-2,3.2968048E-3,-4.843016E-1,-9.8946846E-1,-1.2960378E0,3.932767E-4,-5.302056E-1,-2.1519884E-3,8.218112E-1,-1.3026226E0,-5.8475405E-1,-1.501579E-1,-6.1101356E-4,3.5213152E-4,1.7364578E0,-2.0217127E-1,-7.2287105E-2,-1.4095393E-1,3.5818722E-3,3.453347E-4,-2.008397E0,8.618358E-4,-7.9921E-1,2.5607094E-1,-1.7065649E0,-2.2503583E0,-7.113296E-1,2.5044057E-1,3.804768E-1,8.841763E-1,-1.0587766E0,6.016652E-1,3.569655E-1,-1.8257523E0,6.874366E-1,-1.7343647E0,2.6654886E-4,4.7455276E-3,-1.1926397E0,-8.8462895E-3,-4.13054E-3,-8.3046734E-1,-1.0263122E0,7.9188526E-1,1.6885853E-3,4.6964427E-3,-5.7315606E-1,-1.9250391E-3,-2.2707626E-3,6.155896E-1,1.09094624E-4,-3.3996653E-4,1.1437213E-3,3.1913996E-3,1.5605129E-3,4.898456E-4,-1.2568059E-5,1.9684705E-4,-5.3948927E-4,-7.8761346E-5,-2.3997485E-4,-9.587966E-4,-1.3922156E0,-2.5566432E-4,1.3608903E-3,3.6686286E-4,1.3872458E-3,-1.4155246E0,4.0325336E-3,5.1055447E-4,-5.083363E-4,-2.2269294E-3,1.6574691E-3,3.6022037E-1,7.622504E-1,-3.790308E-4,2.3345654E-4,-1.0048691E-3,3.5276162E-4,1.2484658E-5,-1.0146323E-3,-2.3667995E-4,1.2948456E-3,3.592898E-4,-1.5464224E-4,1.1624396E-5,4.4463488E-4,9.476231E-6,-9.909663E-4,-2.0091769E-3,-1.1807424E0,1.7791547E0,2.910183E-3,9.633714E-4,-1.192099E0,3.2312736E-1,4.1206923E-1,-2.2762011E-1,5.803896E-1,-1.7672111E0,-6.8384844E-1,2.6949805E-1,-9.841098E-1,-1.3512666E0,-2.6716673E-1,-9.945837E-1,1.0311304E0,8.2809385E-3,2.5181392E-1,-8.086103E-1,1.3319768E-1,-1.69234E-3,2.6545492E-3,1.1009895E-3,1.3003121E-1,3.66752E-4,-9.9522465E-1,-1.3950869E0,8.120269E-1,-4.7998193E-1,4.6253862E-4,-2.8749483E-3,-2.8814273E-3,-1.0554204E0,-2.5076204E-4,8.069601E-4,-1.2608247E-1,1.1914991E-3,1.1210076E-1,6.4169836E-1,2.4167252E-1,-6.5101373E-1,3.639947E-4,2.3067905E-5,1.961533E-5,5.524002E-4,-1.3807698E0,-2.4372437E-4,-4.8515084E-3,-2.2516975E-3,-7.743686E-4,6.7750335E-4,-2.119498E0,1.5801643E-1,-1.2043484E0,-1.8695708E-3,2.5063247E-4,1.163341E-3,1.4889677E-3,4.3535797E-4,6.41335E-2,5.0789206E-3,-2.2631648E-3,-1.183582E-4,3.3129504E-1,3.1465038E-3,-1.386517E0,-5.352195E-1,-1.9653885E-1,-1.7902848E0,-1.3353528E0,-1.1886783E0,-1.3184863E0,1.3157785E-1,-1.866474E-3,3.2720566E-1,-7.5460315E-1,-7.8820246E-1,-3.0202636E-1,4.9736712E-2,1.9285949E-4,8.648617E-4,7.461287E-1,1.0435344E0,-1.08029555E-4,1.3313667E-1,-2.867722E-4,-1.2452414E-3,-9.470898E-4,-1.3960856E0,-8.6299016E-4,-1.3181698E0,-4.8557315E-3,-1.3045273E-3,1.0961888E0,-1.2919418E0,-1.0041727E0,-1.1333005E0,3.8850268E-3,1.1145294E-3,-3.3565148E-4,-1.4713736E-3,1.1623079E-1,4.7108978E-1,-1.0342188E-3,-2.8105377E-4,8.8841806E-4,3.52581E-2,7.852446E-5,5.051767E-4,-8.9370104E-4,-1.2811453E0,-5.9891545E-4,3.1546722E-4,2.8368115E-4,-3.937902E-5,2.3073554E-3,1.1904524E-4,8.4450513E-1,7.85979E-1,-4.1346067E-1,-1.1095932E-1,-3.4715355E-4,-2.7314144E-1,2.838218E-1,2.2511275E-1,-1.3655583E0,-2.6850596E-3,-1.3897477E0,-1.242891E0,-6.05426E-3,5.464546E-1,-1.3268723E0,8.6735515E-4,-1.0198284E0,-5.171993E-3,1.675289E-2,2.5342652E-4,-1.0502898E-5,-4.632744E-4,3.716667E-3,1.3859709E-3,-8.409701E-1,-7.8820246E-1,-1.1781017E0,-6.782246E-4,-1.646474E-3,-4.1831852E-4,-4.615962E-3,-1.6380204E-3,1.7047371E-4,6.9672125E-4,-1.0251068E-3,-4.0020854E-3,4.9008548E-5,-7.892386E-5,-3.7299418E-1,1.3734354E0,-5.4472155E-4,-2.4183823E-3,2.0911393E-4,-1.0182059E-4,1.1163814E-3,3.102767E-4,3.570786E-4,1.8518929E-3,4.175199E-4,-2.5740312E-4,1.9134278E-4,-2.2641872E-5,-5.1278947E-4,8.245717E-1,1.402284E-3,5.880846E-4,3.1648297E-4,-2.7038524E-4,-8.566758E-4,-2.9714257E-1,1.9115346E-3,5.9575844E-4,-1.8531986E-3,-3.8517844E-3,-1.5595612E-2,-1.7343647E0,-8.6019635E-1,-1.2326018E-1,-1.4686167E0,-1.360301E0,-2.0214844E0,-7.03623E-1,-1.4043479E0,-1.053083E0,-5.1795214E-1,-1.5928367E-1,-1.3207422E0,-3.054115E-3,4.627817E-1,4.683804E-2,-1.8651153E-4,-9.4736286E-4,-3.466723E-4,-2.4405227E-3,-3.8580556E-4,-8.265383E-5,1.8075876E-3,3.9171255E-3,-3.605513E-5,1.4436819E-3,6.495115E-4,1.9673367E-3,7.0001054E-1,1.9720277E-1,3.0534112E-1,-1.1647595E-1,-4.2882776E-1,-1.6247055E-3,-1.1250782E0,5.526123E-4,5.595639E-3,2.8383543E-3,9.327295E-4,2.3511355E-3,-1.3973026E0,-2.167668E-1,3.705021E-3,9.021028E-4,-1.902543E-5,9.7317965E-4,-5.083447E-4,-2.5087015E-3,-1.2516688E-3,3.037879E-1,-9.2912674E-1,-6.0479358E-2,-3.8364605E-4,-9.455863E-5,2.5328773E-4,2.354014E-5,4.387536E-3,2.0696044E-3,-1.2637893E0,-7.853008E-4,-1.570027E-3,-4.2009584E-4,-1.3318328E0,-1.2302097E0,-1.1647595E-1,3.8098684E-4,-5.538045E-1,-5.577472E-1,-3.021066E-1,-1.2758217E0,4.523816E-1,-1.3181698E0,1.0487287E-3,2.1575327E-1,-5.120238E-3,-3.2910134E-3,-7.429952E-6,1.823104E-4,-3.193016E-4,1.4706925E-4,-5.6960213E-1,-1.1159972E0,-2.1359568E0,-1.4170175E0,1.9004361E-1,4.4480103E-1,-1.7746665E-3,-7.0038146E-1,1.3624459E-3,3.0162968E-4,3.353908E-4,1.4766468E-3,-2.0179038E-1,3.3030682E-4,-1.8384109E-3,-9.271848E-4,1.4222821E-3,-2.2620652E-4,-1.4005525E0,8.120269E-1,-1.2344769E0,9.9088645E-1,-1.3073685E0,6.1099365E-4,-2.041562E-3,-9.0819475E-4,2.5683732E-4,-1.2728412E0,2.2838454E-4,-1.2698271E0,2.351893E-3,7.1752525E-4,-2.3425157E-4,-7.822081E-1,1.5542075E-5,2.001073E-3,1.3436255E-3,3.7805033E-3,-1.0459468E0,-1.4775625E0,-5.1281327E-1,-9.736458E-2,4.3754582E-4,-9.485162E-1,-1.0883162E-3,-2.7470387E-4,5.220155E-4,-1.337223E-4,-1.464203E-3,-3.1865246E-4,-6.293071E-4,-1.0492916E-4,-1.425618E0,-1.2728412E0,-9.849804E-4,-2.937198E-4,1.3593562E-5,-1.3446082E-4,-5.194377E-4,-1.1017022E-4,6.332088E-4,1.3603289E-4,5.1279255E-4,8.839741E-5,1.575715E-4,-7.6540554E-4,2.391954E-1,1.4070942E0,4.478746E-2,-3.4971788E-4,-2.6598186E-4,-6.29327E-4,6.3572533E-4,1.7409048E0,-6.67247E-5,-4.604994E-4,-5.438592E-1,6.239856E-4,1.008416E0,9.5568615E-4,2.3254775E-4,-1.6902915E-5,-1.4314582E0,2.1347105E-4,2.0343345E-3,1.0923791E-3,3.1456214E-3,1.1574792E-3,8.748362E-4,2.2409924E-3],"split_indices":[713,790,272,349,796,0,804,387,257,151,440,0,0,193,0,206,116,606,296,407,698,0,766,0,0,583,736,0,0,232,125,0,0,18,351,301,84,0,0,0,0,738,298,517,274,0,62,36,677,0,0,0,0,414,450,179,569,1,0,465,62,779,244,584,62,198,386,296,0,726,400,21,464,506,283,116,0,6,90,0,0,0,0,414,0,570,712,8,0,62,25,0,181,0,353,381,0,9,374,322,310,34,730,492,192,0,816,814,809,0,3,289,1,1,517,0,0,0,9,101,285,777,8,244,779,0,0,1,0,0,0,0,0,0,0,0,0,51,9,0,0,3,780,0,0,245,196,47,711,569,624,816,8,571,480,233,0,8,285,0,803,0,376,233,36,0,0,0,0,0,0,0,0,25,0,0,11,24,0,229,0,11,0,532,0,0,0,0,1,0,0,8,0,0,285,0,0,751,0,52,690,660,558,348,424,647,645,593,11,131,9,452,218,0,0,0,0,0,51,0,218,0,0,480,0,0,62,0,0,0,0,0,0,0,0,0,0,0,0,0,0,0,0,0,0,0,0,0,0,0,67,426,0,0,0,0,0,0,0,0,0,0,0,0,0,0,0,36,75,0,0,16,7,29,661,0,555,47,322,609,661,583,374,582,0,0,698,57,0,0,0,0,0,558,0,36,505,0,0,0,103,0,0,89,0,0,766,465,0,0,0,0,0,0,0,0,0,0,0,125,0,0,0,0,0,0,0,13,0,0,0,625,0,717,272,155,36,404,693,3,805,0,0,0,0,128,9,0,0,0,284,0,2,0,0,0,3,0,0,0,0,634,2,0,0,0,0,0,0,104,9,0,0,0,0,0,0,0,218,0,0,0,0,0,0,805,0,115,11,0,0,675,296,0,346,144,236,194,801,1,0,9,0,0,0,0,0,0,0,623,0,0,0,0,0,0,0,0,0,0,0,0,0,9,75,0,0,0,0,0,0,0,0,0,0,0,0,0,366,0,0,0,0,0,102,0,0,0,0,450,36,11,0,0,3,75,61,0,37,454,8,3,0,166,3,0,0,0,0,0,0,0,0,0,0,0,0,36,190,428,90,155,0,25,0,0,0,0,0,0,752,0,0,0,0,0,0,0,701,236,194,0,0,0,0,0,0,0,0,0,0,0,0,90,0,8,506,114,133,623,0,0,8,0,0,0,0,0,0,113,62,101,531,506,549,0,90,0,0,0,0,8,0,0,0,0,0,6,296,0,272,3,0,0,0,0,0,0,0,0,0,0,8,0,0,0,0,6,16,634,25,0,62,0,0,0,0,0,0,0,0,141,0,0,0,0,0,0,0,0,0,0,0,0,0,454,372,0,0,0,0,0,179,0,0,180,0,402,0,0,0,752,0,0,0,0,0,0,0],"split_type":[0,0,0,0,0,0,0,0,0,0,0,0,0,0,0,0,0,0,0,0,0,0,0,0,0,0,0,0,0,0,0,0,0,0,0,0,0,0,0,0,0,0,0,0,0,0,0,0,0,0,0,0,0,0,0,0,0,0,0,0,0,0,0,0,0,0,0,0,0,0,0,0,0,0,0,0,0,0,0,0,0,0,0,0,0,0,0,0,0,0,0,0,0,0,0,0,0,0,0,0,0,0,0,0,0,0,0,0,0,0,0,0,0,0,0,0,0,0,0,0,0,0,0,0,0,0,0,0,0,0,0,0,0,0,0,0,0,0,0,0,0,0,0,0,0,0,0,0,0,0,0,0,0,0,0,0,0,0,0,0,0,0,0,0,0,0,0,0,0,0,0,0,0,0,0,0,0,0,0,0,0,0,0,0,0,0,0,0,0,0,0,0,0,0,0,0,0,0,0,0,0,0,0,0,0,0,0,0,0,0,0,0,0,0,0,0,0,0,0,0,0,0,0,0,0,0,0,0,0,0,0,0,0,0,0,0,0,0,0,0,0,0,0,0,0,0,0,0,0,0,0,0,0,0,0,0,0,0,0,0,0,0,0,0,0,0,0,0,0,0,0,0,0,0,0,0,0,0,0,0,0,0,0,0,0,0,0,0,0,0,0,0,0,0,0,0,0,0,0,0,0,0,0,0,0,0,0,0,0,0,0,0,0,0,0,0,0,0,0,0,0,0,0,0,0,0,0,0,0,0,0,0,0,0,0,0,0,0,0,0,0,0,0,0,0,0,0,0,0,0,0,0,0,0,0,0,0,0,0,0,0,0,0,0,0,0,0,0,0,0,0,0,0,0,0,0,0,0,0,0,0,0,0,0,0,0,0,0,0,0,0,0,0,0,0,0,0,0,0,0,0,0,0,0,0,0,0,0,0,0,0,0,0,0,0,0,0,0,0,0,0,0,0,0,0,0,0,0,0,0,0,0,0,0,0,0,0,0,0,0,0,0,0,0,0,0,0,0,0,0,0,0,0,0,0,0,0,0,0,0,0,0,0,0,0,0,0,0,0,0,0,0,0,0,0,0,0,0,0,0,0,0,0,0,0,0,0,0,0,0,0,0,0,0,0,0,0,0,0,0,0,0,0,0,0,0,0,0,0,0,0,0,0,0,0,0,0,0,0,0,0,0,0,0,0,0,0,0,0,0,0,0,0,0,0,0,0,0,0,0,0,0,0,0,0,0,0,0,0,0,0,0,0,0,0,0,0,0,0,0,0,0,0,0,0,0,0,0,0,0,0,0,0,0,0,0,0,0,0,0,0,0,0,0,0,0,0,0,0,0,0,0,0,0,0,0,0,0,0,0,0,0,0,0,0,0,0,0,0,0,0,0,0,0,0,0,0,0,0],"sum_hessian":[1.067E3,1.051E3,1.6E1,2.31E2,8.2E2,4E0,1.2E1,2.3E1,2.08E2,7.06E2,1.14E2,9E0,3E0,2E1,3E0,2.01E2,7E0,6.95E2,1.1E1,6.5E1,4.9E1,4E0,1.6E1,2E0,1E0,9.7E1,1.04E2,5E0,2E0,9.3E1,6.02E2,7E0,4E0,9E0,5.6E1,3.1E1,1.8E1,6E0,1E1,1E0,1E0,7.1E1,2.6E1,2.3E1,8.1E1,4E0,8.9E1,5.19E2,8.3E1,1E0,3E0,7E0,2E0,3.6E1,2E1,1.5E1,1.6E1,4E0,1.4E1,1.9E1,5.2E1,1.3E1,1.3E1,1.1E1,1.2E1,2.5E1,5.6E1,8.3E1,6E0,3.79E2,1.4E2,2.8E1,5.5E1,1.3E1,2.3E1,1.8E1,2E0,3E0,1.2E1,7E0,9E0,2E0,2E0,1.4E1,5E0,2.3E1,2.9E1,9E0,4E0,8E0,5E0,4E0,7E0,1E0,1.1E1,2.1E1,4E0,8E0,4.8E1,1E1,7.3E1,3.27E2,5.2E1,1.13E2,2.7E1,4E0,2.4E1,3.5E1,2E1,4E0,9E0,2E1,3E0,5E0,1.3E1,1E0,2E0,2E0,1E1,6E0,8E0,1.8E1,5E0,1.2E1,1.7E1,1E0,8E0,6E0,2E0,2E0,3E0,1E0,3E0,4E0,3E0,2E0,9E0,9E0,1.2E1,1E0,7E0,3E0,4.5E1,8E0,2E0,2E1,5.3E1,2.59E2,6.8E1,3.9E1,1.3E1,1.08E2,5E0,1.1E1,1.6E1,1.8E1,6E0,1.3E1,2.2E1,5E0,1.5E1,1E0,8E0,1.5E1,5E0,1E0,2E0,3E0,2E0,9E0,4E0,1E0,1E0,9E0,1E0,2E0,4E0,5E0,3E0,1.2E1,6E0,4E0,1E0,9E0,3E0,1.5E1,2E0,2E0,4E0,1E0,1E0,6E0,3E0,2E0,1E1,2E0,1E0,4.3E1,2E0,6E0,1.4E1,3E1,2.3E1,1.74E2,8.5E1,1.9E1,4.9E1,2.9E1,1E1,1E1,3E0,1.4E1,9.4E1,1E0,4E0,3E0,8E0,6E0,1E1,3E0,1.5E1,3E0,1E1,1.9E1,3E0,5E0,1E1,2E0,6E0,2E0,1.3E1,3E0,2E0,2E0,1E0,3E0,1E0,1E0,8E0,2E0,2E0,4E0,1E0,6E0,6E0,5E0,1E0,1E0,3E0,4E0,5E0,1.4E1,1E0,1E0,1E0,1E0,1E0,3E0,1E0,5E0,1E0,2E0,1E0,1E0,1E0,5E0,5E0,4E0,3.9E1,3E0,3E0,1E1,4E0,5E0,2.5E1,3E0,2E1,3.1E1,1.43E2,6.6E1,1.9E1,1.1E1,8E0,4.6E1,3E0,4E0,2.5E1,7E0,3E0,7E0,3E0,2E0,1E0,1.1E1,3E0,4E0,9E1,1E0,2E0,2E0,8E0,1E0,2E0,1.2E1,3E0,3E0,1.6E1,7E0,3E0,1E0,1E0,1E0,5E0,3E0,2E0,1.1E1,3E0,3E0,1E0,3.7E1,2E0,3E0,7E0,1E0,3E0,3E0,2E0,6E0,1.9E1,2E0,1E0,1.3E1,7E0,2E1,1.1E1,4.8E1,9.5E1,2.6E1,4E1,4E0,1.5E1,6E0,5E0,3E0,5E0,3.9E1,7E0,1E0,3E0,4E0,2.1E1,2E0,5E0,1E0,1E0,2E0,9E0,1E0,2E0,3E0,1E0,8.2E1,8E0,3E0,5E0,1.1E1,1E0,2E0,1E0,1.1E1,5E0,4E0,3E0,1E0,2E0,1E0,2E0,3E0,3.4E1,1E0,1E0,2E0,1E0,5E0,1E0,1E1,3E0,1.3E1,7E0,4E0,7E0,2.2E1,2.6E1,1E1,8.5E1,7E0,1.9E1,1.2E1,2.8E1,2E0,2E0,7E0,8E0,4E0,1E0,2E0,1E0,3E0,2E0,3.3E1,6E0,4E0,3E0,3E0,1E0,1.9E1,2E0,1E0,4E0,1E0,8E0,1E0,1E0,6E1,2.2E1,1E0,7E0,2E0,1E0,4E0,1E0,2E0,9E0,4E0,1E0,1E0,1E0,2E0,3.2E1,7E0,3E0,2E0,1E0,4E0,9E0,5E0,2E0,5E0,2E0,1.5E1,7E0,1.9E1,7E0,4E0,6E0,2.4E1,6.1E1,3E0,4E0,1.1E1,8E0,5E0,7E0,1.5E1,1.3E1,1E0,1E0,1E0,6E0,3E0,1E0,4E0,2.9E1,1E0,5E0,3E0,1E0,1.8E1,4.2E1,1.3E1,9E0,2.8E1,4E0,5E0,4E0,9E0,6E0,2E0,5E0,4E0,1.5E1,6E0,1E0,1E0,3E0,1E0,5E0,1E0,2.3E1,5E1,1.1E1,2E0,1E0,2E0,2E0,3E0,8E0,7E0,1E0,4E0,1E0,1E1,5E0,1.2E1,1E0,6E0,1.2E1,3.5E1,7E0,1E1,3E0,4E0,5E0,1E1,1.8E1,3E0,2E0,3E0,1E0,1E1,5E0,1.3E1,1E1,1.1E1,3.9E1,4E0,7E0,6E0,1E0,2E0,8E0,4E0,1E0,5E0,7E0,5E0,1E0,3E0,9E0,3E0,3.2E1,5E0,2E0,5E0,5E0,1E0,2E0,2E0,3E0,8E0,2E0,2E0,3E0,1E0,1.2E1,2E0,8E0,5E0,6E0,3.4E1,5E0,2E0,5E0,3E0,1E0,2E0,1E0,7E0,2E0,2E0,1E0,2.9E1,3E0,3E0,2E0,1E0,1E0,2E0,1E0,2E0,1E0,4E0,1E0,1E0,5E0,1.8E1,1.6E1,3E0,2E0,3E0,2E0,4E0,2.5E1,1E0,2E0,1.3E1,5E0,1.4E1,2E0,1E0,2E0,2.4E1,1E0,6E0,7E0,1.2E1,2E0,2E0,2.2E1],"tree_param":{"num_deleted":"0","num_feature":"819","num_nodes":"619","size_leaf_vector":"1"}},{"base_weights":[-2.1689682E-4,3.1535844E-3,-1.5944643E-2,3.5886083E-2,1.735189E-3,3.907955E-3,-2.7154997E-2,4.6065368E-2,-1.2866015E-2,-1.219619E-2,5.352201E-3,1.6405826E-2,-5.57826E-2,-7.270576E-3,-2.3217052E-2,5.234811E-2,1.7943762E-2,-1.6530797E-2,4.5613368E-4,-7.7598123E-3,-6.5859586E-2,5.984624E-3,-6.4790137E-3,-1.765389E-2,2.4934322E-2,-8.160995E-3,-3.8105715E-3,6.910837E-3,-2.7996523E-2,2.1658177E-2,5.928451E-2,2.1450764E-3,-1.549125E-4,-1.8291231E-3,-3.8643094E-4,-3.858617E-2,-1.7654041E-3,-3.2732416E-2,-8.957825E-3,7.017627E-3,-3.1076852E-2,-3.5744717E-3,1.4822213E-3,2.7990064E-2,-2.819467E-3,-1.1475984E-2,2.2486808E-2,-3.4330968E-2,-1.0536978E-2,-7.298806E-5,2.6281762E-3,6.2612975E-3,2.066171E-3,-5.613669E-2,1.7070482E-2,8.635199E-3,-1.9619133E-2,-3.6511838E-3,-5.0279405E-4,-4.3331657E-2,7.7235224E-3,-5.7042565E-2,1.226924E-3,3.2940626E-2,1.5949578E-3,-8.042481E-4,-1.7718177E-2,2.5759432E-3,7.3550775E-4,-6.8500236E-4,-3.8058534E-2,-2.4505178E-2,1.2008145E-2,-1.7028421E-2,-6.803755E-2,2.5677388E-3,8.4922435E-3,4.4162817E-2,3.909077E-3,-4.236382E-2,-5.5013783E-3,-5.5261427E-3,-1.0516489E-3,9.805353E-3,-8.35249E-3,-1.9194562E-3,-7.907547E-3,8.954031E-3,-1.0670468E-2,3.9209437E-2,1.2093896E-2,-1.1822484E-3,1.796802E-2,-1.5086833E-4,6.5452885E-5,-2.1702354E-3,-7.8279414E-4,-1.0705364E-3,1.20117E-2,-7.7307727E-3,-4.0539708E-2,-3.215668E-2,2.897683E-4,-7.5738626E-3,2.9588796E-2,1.1749696E-3,-2.5133982E-3,-7.0324144E-3,-1.8012617E-3,2.558385E-4,9.3361124E-4,5.014295E-3,-4.8291948E-4,-7.443352E-3,2.9289164E-2,-2.7465113E-2,-5.9416402E-2,9.499268E-3,-3.129406E-2,4.5414828E-4,-6.1189564E-4,3.8507428E-2,8.448344E-3,-1.6034722E-2,2.8337412E-2,1.1667246E-3,2.351735E-3,-2.3822393E-4,-1.2639132E-3,1.4459304E-2,4.677094E-2,1.5762625E-3,5.2726426E-4,3.3512354E-4,2.1723204E-3,3.996788E-4,1.8028219E-3,-1.7138774E-3,-1.031075E-3,-4.39117E-2,-1.3975818E-2,-3.5668124E-2,-8.562497E-4,-2.1100335E-3,4.944488E-4,-1.432728E-3,3.9553153E-4,6.631603E-4,3.2853913E-3,-1.56257E-2,1.956449E-2,6.6439016E-3,4.2433396E-2,-3.096393E-3,-1.2726492E-3,-1.4145314E-3,-6.3862945E-3,3.7718855E-2,-1.6767826E-3,-3.7281201E-3,-9.055698E-4,5.4763827E-2,1.2838932E-2,9.231082E-3,-2.650049E-2,2.4257548E-2,-2.170701E-2,-8.304576E-4,4.6671137E-2,2.9476287E-4,5.7997393E-5,3.3555827E-3,2.045042E-3,4.819145E-2,9.180358E-4,9.0024205E-6,-2.6608404E-4,-3.1985037E-2,-5.1194195E-2,-1.69097E-2,3.2806795E-4,-3.7169647E-3,-1.0326455E-3,-2.5127255E-4,-4.50979E-5,2.9434133E-3,-2.2309689E-2,5.473282E-3,2.7687337E-2,-9.912653E-3,1.5155661E-2,4.9346518E-2,1.8737845E-2,1.1241228E-3,4.076614E-3,-6.5152384E-3,1.0270867E-3,3.736129E-4,-5.0944835E-4,6.385206E-3,2.3816957E-3,2.2526039E-2,-3.2908036E-3,8.3265845E-3,4.720449E-2,-1.12686865E-2,-3.985418E-3,3.2135204E-3,8.346094E-4,-3.6908828E-2,-1.4913776E-2,1.1202323E-3,-9.647428E-3,5.0141285E-3,1.1190051E-3,4.3950413E-4,1.1860417E-5,1.4162262E-3,4.9237083E-3,-6.6341273E-4,-3.418842E-2,-2.36904E-3,-5.451438E-2,-7.2217424E-4,-1.9340534E-3,-6.8474705E-3,1.0915112E-2,-4.0555065E-3,-3.0809037E-2,-2.1766881E-4,7.4386137E-4,3.5451953E-3,1.5938178E-3,-1.2281795E-3,-1.4026121E-4,1.9079198E-3,3.5645484E-4,5.135732E-3,1.4619261E-3,3.3452496E-4,2.1749684E-3,-1.3091256E-3,-1.5908224E-3,2.528948E-3,2.9726932E-4,2.9748635E-4,-8.4595365E-4,6.8805437E-3,2.792009E-2,5.3345794E-3,1.0998662E-3,-1.4268943E-3,3.3664258E-4,-1.2769396E-3,-3.944522E-3,-3.2406818E-2,-6.884123E-3,-1.2709631E-4,-1.2015929E-3,-1.5007427E-3,-3.6690512E-3,-9.2733727E-4,-5.595308E-2,-1.1080708E-3,1.0793367E-3,1.7435742E-4,1.4235013E-3,-1.6172081E-3,5.1785484E-3,-3.6054216E-2,-6.813617E-3,-3.5659175E-3,2.889642E-3,-1.5391951E-2,7.984009E-3,9.294901E-2,1.8351183E-3,-1.236543E-3,-4.088183E-2,-1.5364084E-2,1.4894485E-3,-5.704582E-3,-1.486367E-3,3.2502817E-4,-1.6312767E-4,-1.7056116E-3,8.273335E-3,-3.941639E-3,-2.0101732E-3,-6.4868065E-5,-8.192681E-4,-6.918262E-5,-4.0023704E-4,4.2240313E-4,1.1043181E-5,-2.635818E-2,8.464499E-3,-1.0100831E-2,9.230072E-3,1.1450585E-2,3.1987287E-3,-1.1690584E-2,1.6260097E-2,-4.4006337E-3,-9.5051556E-4,-2.091954E-3,-4.4702217E-3,1.44998515E-2,-2.9714731E-3,1.8634555E-5,-2.744763E-4,2.2178372E-4,9.23275E-4,-3.1715587E-2,-2.3570573E-3,1.9976902E-3,1.2975488E-3,-2.1413416E-3,-6.130218E-3,2.0306956E-2,7.5808484E-3,-1.9249247E-3,-1.690207E-2,2.5142735E-4,1.8530767E-3,-5.5986794E-4,-1.475538E-4,1.6627085E-3,4.059077E-4,-6.5680817E-3,3.3773948E-4,-1.2865306E-3,-3.3973341E-3,3.3397577E-4,-5.369248E-4,-4.368661E-4,5.222819E-4,4.6986598E-3,-2.6864456E-3,2.3785025E-2,5.8617964E-3,2.1444945E-2,5.9997346E-3,3.0770397E-3,-5.195167E-4,-2.1881333E-3,-1.076555E-3,-2.7447843E-4,-9.7051833E-4,-4.458126E-3,2.1280302E-2,-1.9829355E-3,2.571885E-2,1.750258E-3,-2.1464175E-3,-7.2699613E-3,3.0607155E-2,1.3049621E-3,1.0313645E-2,4.5020107E-4,1.1354895E-5,-9.702983E-3,5.0263237E-3,3.19951E-3,8.452404E-3,-1.010978E-3,1.11988E-3,2.7290577E-2,4.357725E-3,2.6230965E-4,-5.5327453E-3,2.7047577E-3,-1.7785631E-2,3.8810525E-2,1.5751505E-2,5.0175507E-3,-1.2928611E-2,-6.0062804E-3,1.2806224E-2,-1.1039985E-2,1.16501724E-4,8.6793705E-4,1.0299578E-3,-3.7410064E-5,1.0752556E-3,2.9497638E-2,1.3302496E-2,5.2456785E-4,8.469327E-5,-6.253232E-4,-1.3253988E-4,7.3235325E-4,-1.4355129E-3,-4.8292745E-4,-1.9817404E-3,4.1874673E-2,9.5315464E-4,4.624608E-4,1.8946625E-3,3.4791885E-3,3.6230497E-2,-2.2537332E-2,-3.1354516E-3,8.376562E-3,-9.301677E-3,2.5562929E-2,8.516905E-3,-3.0569392E-4,-1.1655749E-3,2.1228686E-4,-4.1968656E-6,5.714119E-3,3.0892735E-2,1.4747478E-3,2.316301E-4,-2.4145974E-4,7.5087024E-5,4.589072E-3,1.8353856E-3,5.310284E-3,-1.5980368E-2,8.812017E-4,4.7736736E-3,-6.716824E-4,-2.5407972E-2,-1.5057009E-2,5.8198124E-3,1.0768564E-3,3.1923736E-4,-3.6874583E-3,-1.5753781E-2,4.416905E-2,1.8265545E-2,2.3881046E-2,5.819832E-3,1.4969292E-4,7.0742494E-4,1.3314185E-3,3.235279E-2,7.533663E-3,-1.1267928E-2,-5.7204615E-4,-2.4703403E-3,-2.592088E-4,1.5845643E-4,-2.8878294E-3,-1.269167E-3,-1.6843046E-3,-1.2773779E-4,-1.4806327E-3,1.0203015E-3,-5.622365E-3,1.587947E-3,-1.7740366E-3,6.943918E-6,4.934585E-4,4.798015E-3,2.3799112E-2,5.371857E-3,6.495973E-3,3.0583495E-3,-1.9173652E-3,1.1455688E-2,3.332068E-3,1.3502777E-3,8.868408E-3,-1.530033E-2,-1.886753E-2,1.2447959E-2,-4.6108692E-4,3.657459E-3,-2.821525E-4,3.5380373E-5,-1.2634518E-4,-6.009298E-4,2.640737E-4,-7.852114E-5,3.0862788E-2,1.3649157E-2,-4.254197E-3,1.2498259E-2,1.435582E-3,2.0528396E-3,1.8317541E-3,-6.360751E-3,2.024798E-2,3.6792024E-3,9.831045E-3,-2.457121E-3,-4.0572096E-4,-1.6737512E-3,-5.4507E-3,-2.3217506E-3,4.154251E-4,1.8664541E-3,4.655812E-5,5.0206075E-4,1.6974868E-3,3.637376E-3,4.8653246E-4,1.6718612E-3,-1.1093577E-4,-5.98097E-4,3.1368184E-4,1.3743183E-3,3.9389424E-4,-5.175429E-4,-1.15079E-2,1.6124514E-3,-5.2265625E-4,2.3650069E-2,8.463101E-3,-7.691685E-3,3.1084873E-4,1.3044761E-2,-6.43322E-4,-1.2515702E-4,-1.3964872E-4,6.201729E-5,-1.474286E-2,-4.2419962E-4,1.2409254E-3,-2.1208539E-3,1.5477282E-2,3.0533083E-2,-8.9500425E-4,1.1522575E-2,-3.011387E-3,-1.7608585E-3,-3.4842733E-3,6.351959E-3,1.901605E-2,6.7111175E-3,-7.530619E-3,-1.9038366E-3,-1.8743408E-3,3.4132533E-4,4.440809E-4,-5.956786E-3,1.784117E-3,5.6982418E-3,3.2331967E-3,5.3726864E-4,5.8920374E-3,1.9231876E-3,3.44343E-4,-4.4254223E-3,2.9495116E-3,-5.1958784E-3,8.8396895E-4,4.022976E-4,2.4191003E-2,6.650225E-3,1.8226083E-2,2.197755E-3,-3.845499E-4,-8.972591E-4,-2.4670918E-4,-6.5680964E-5,-7.9051516E-4,-2.032133E-4,1.578358E-4,6.545417E-4,1.1558438E-3,9.786512E-4,-1.6847756E-4,-6.059713E-4,3.7493758E-4,2.749595E-5,-8.6372216E-5,-6.409153E-3,2.6487544E-2,5.512287E-3,-3.0403386E-3,1.0218228E-2,2.0082805E-3,7.19947E-4,-6.72689E-3,8.753879E-3,2.930778E-4,-2.1876609E-4,-3.746716E-4,-7.559659E-4,2.8889608E-2,1.2542603E-3,-1.8074154E-5,7.47021E-4,-4.846199E-4,1.1886212E-4,1.3027115E-3,5.365695E-4,3.6035688E-3,-1.0570773E-2,-3.123814E-4,1.2903305E-2,2.981736E-3,6.558913E-4,6.779485E-4,2.8510144E-4,-2.6913433E-4,-1.1219283E-3,-2.882597E-4,1.6933758E-3,1.0123617E-3,1.5433253E-3,-6.338847E-5,1.0615368E-4,1.2913882E-5,2.1717418E-4,2.1817915E-4,-6.632489E-5],"categories":[],"categories_nodes":[],"categories_segments":[],"categories_sizes":[],"default_left":[0,0,0,0,0,0,0,0,0,0,0,0,0,0,0,0,0,0,0,0,0,0,0,0,0,0,0,0,0,0,0,0,0,0,0,0,0,0,0,0,0,0,0,0,0,0,0,0,0,0,0,0,0,0,0,0,0,0,0,0,0,0,0,0,0,0,0,0,0,0,0,0,0,0,0,0,0,0,0,0,0,0,0,0,0,0,0,0,0,0,0,0,0,0,0,0,0,0,0,0,0,0,0,0,0,0,0,0,0,0,0,0,0,0,0,0,0,0,0,0,0,0,0,0,0,0,0,0,0,0,0,0,0,0,0,0,0,0,0,0,0,0,0,0,0,0,0,0,0,0,0,0,0,0,0,0,0,0,0,0,0,0,0,0,0,0,0,0,0,0,0,0,0,0,0,0,0,0,0,0,0,0,0,0,0,0,0,0,0,0,0,0,0,0,0,0,0,0,0,0,0,0,0,0,0,0,0,0,0,0,0,0,0,0,0,0,0,0,0,0,0,0,0,0,0,0,0,0,0,0,0,0,0,0,0,0,0,0,0,0,0,0,0,0,0,0,0,0,0,0,0,0,0,0,0,0,0,0,0,0,0,0,0,0,0,0,0,0,0,0,0,0,0,0,0,0,0,0,0,0,0,0,0,0,0,0,0,0,0,0,0,0,0,0,0,0,0,0,0,0,0,0,0,0,0,0,0,0,0,0,0,0,0,0,0,0,0,0,0,0,0,0,0,0,0,0,0,0,0,0,0,0,0,0,0,0,0,0,0,0,0,0,0,0,0,0,0,0,0,0,0,0,0,0,0,0,0,0,0,0,0,0,0,0,0,0,0,0,0,0,0,0,0,0,0,0,0,0,0,0,0,0,0,0,0,0,0,0,0,0,0,0,0,0,0,0,0,0,0,0,0,0,0,0,0,0,0,0,0,0,0,0,0,0,0,0,0,0,0,0,0,0,0,0,0,0,0,0,0,0,0,0,0,0,0,0,0,0,0,0,0,0,0,0,0,0,0,0,0,0,0,0,0,0,0,0,0,0,0,0,0,0,0,0,0,0,0,0,0,0,0,0,0,0,0,0,0,0,0,0,0,0,0,0,0,0,0,0,0,0,0,0,0,0,0,0,0,0,0,0,0,0,0,0,0,0,0,0,0,0,0,0,0,0,0,0,0,0,0,0,0,0,0,0,0,0,0,0,0,0,0,0,0,0,0,0,0,0,0,0,0,0,0,0,0,0,0,0,0,0,0,0,0,0,0,0,0,0,0,0,0,0,0,0,0,0,0,0,0,0,0,0,0,0,0,0,0,0,0,0,0,0,0,0,0,0,0,0,0,0,0,0,0,0,0,0,0,0,0,0,0,0,0,0,0,0,0,0,0,0,0],"id":1,"left_children":[1,3,5,7,9,11,13,15,17,19,21,23,25,-1,27,29,31,33,-1,35,37,39,-1,41,43,-1,-1,45,47,49,51,-1,-1,-1,-1,53,55,57,-1,59,61,-1,-1,63,-1,65,67,69,71,-1,-1,-1,-1,73,75,77,79,-1,-1,81,83,85,87,89,91,93,95,-1,-1,97,99,101,103,105,107,-1,109,111,113,115,117,-1,119,121,123,-1,-1,125,127,129,131,-1,133,-1,-1,-1,-1,-1,135,137,139,141,143,145,147,-1,-1,-1,-1,-1,-1,-1,-1,149,151,153,155,157,159,-1,-1,161,163,165,167,-1,169,-1,-1,171,173,-1,-1,-1,-1,-1,-1,175,-1,177,179,181,-1,183,-1,-1,-1,-1,-1,185,187,189,191,-1,-1,-1,-1,193,195,-1,197,199,201,203,205,207,209,211,213,-1,-1,215,-1,217,-1,-1,-1,219,221,223,-1,-1,-1,-1,-1,225,227,229,231,233,235,237,239,-1,-1,241,-1,-1,-1,-1,-1,243,245,247,249,251,-1,-1,-1,253,255,-1,257,-1,-1,-1,-1,-1,-1,-1,259,-1,261,-1,-1,263,265,267,269,-1,-1,-1,-1,-1,-1,-1,-1,-1,-1,-1,-1,-1,271,-1,-1,-1,-1,273,275,-1,-1,-1,-1,-1,-1,277,279,-1,-1,-1,-1,-1,281,-1,283,-1,-1,-1,285,287,289,291,293,295,297,299,301,-1,303,305,307,-1,-1,-1,-1,309,311,-1,-1,-1,-1,-1,-1,-1,-1,313,315,317,319,-1,-1,321,323,-1,-1,-1,325,327,329,-1,-1,-1,-1,331,333,-1,335,337,-1,339,341,343,345,-1,-1,-1,-1,-1,-1,347,-1,-1,-1,-1,-1,-1,-1,349,-1,351,353,355,357,359,-1,-1,-1,-1,-1,361,363,365,367,-1,369,371,373,375,377,-1,-1,379,381,-1,383,-1,-1,385,387,-1,389,391,393,395,397,399,401,403,405,407,-1,-1,409,-1,-1,411,413,-1,-1,-1,-1,-1,415,-1,-1,417,-1,-1,-1,419,421,423,425,427,429,431,433,-1,-1,-1,-1,435,437,-1,-1,-1,-1,-1,-1,439,441,-1,-1,443,445,447,449,-1,-1,451,453,455,457,459,461,-1,-1,-1,463,465,467,469,-1,-1,-1,-1,-1,-1,-1,471,-1,473,475,-1,-1,-1,-1,477,479,481,-1,483,485,-1,-1,487,489,491,493,-1,495,-1,-1,-1,-1,-1,-1,497,499,501,503,-1,505,-1,507,509,511,513,-1,-1,-1,515,-1,-1,-1,-1,-1,-1,-1,-1,-1,-1,-1,-1,-1,-1,517,519,521,-1,523,525,527,529,531,-1,-1,-1,-1,533,535,-1,537,539,541,-1,543,545,-1,547,549,551,553,555,-1,557,-1,-1,559,-1,561,-1,-1,563,-1,-1,565,567,569,-1,-1,571,573,575,577,-1,-1,-1,-1,-1,-1,-1,-1,579,-1,-1,-1,-1,-1,-1,581,583,585,587,589,-1,-1,591,593,-1,-1,-1,-1,595,-1,-1,-1,-1,-1,-1,-1,597,599,601,603,-1,-1,-1,605,-1,-1,-1,607,609,-1,-1,-1,-1,-1,-1,-1],"loss_changes":[5.5869896E-2,4.023691E-2,4.1501284E-2,1.8458087E-2,4.2040113E-2,5.1643495E-2,1.9657776E-2,4.361108E-3,5.224745E-4,4.043717E-2,2.975381E-2,1.699744E-2,2.3687594E-3,0E0,1.6176961E-2,3.825061E-3,5.1176106E-4,6.3108164E-5,0E0,2.9497605E-2,7.2824024E-3,2.5371078E-2,0E0,7.580051E-3,8.257205E-3,0E0,0E0,4.8403395E-3,1.02555305E-2,6.4026145E-4,1.1488423E-3,0E0,0E0,0E0,0E0,2.6355162E-2,2.5237506E-2,5.49369E-4,0E0,2.3081128E-2,1.5168216E-2,0E0,0E0,5.6969672E-3,0E0,5.186704E-4,2.5622128E-4,8.753158E-3,8.796961E-3,0E0,0E0,0E0,0E0,8.14987E-3,2.987662E-4,1.4267439E-2,1.5822135E-2,0E0,0E0,4.4813994E-3,2.1233384E-2,6.8211965E-3,9.2293567E-4,4.361119E-3,1.9699035E-3,5.097933E-6,2.713746E-5,0E0,0E0,1.146394E-3,4.427254E-3,3.2345355E-3,4.0110108E-3,1.6948936E-3,4.490763E-4,0E0,1.1516095E-6,3.1719357E-3,2.2403684E-2,3.1952895E-3,1.2678291E-2,0E0,1.1281548E-4,2.1486118E-2,2.1030191E-2,0E0,0E0,8.004243E-5,3.5157485E-5,4.5638755E-3,1.6714272E-4,0E0,1.4675525E-4,0E0,0E0,0E0,0E0,0E0,1.2083247E-4,7.5469376E-5,4.581541E-3,7.7163614E-4,6.628506E-5,5.2383705E-4,2.3187324E-4,0E0,0E0,0E0,0E0,0E0,0E0,0E0,0E0,1.2239037E-2,6.8617854E-3,2.2475142E-4,7.0703775E-4,6.6863005E-3,2.1495232E-3,0E0,0E0,9.728819E-3,1.4907334E-2,1.4468066E-2,6.9905836E-3,0E0,1.4577945E-6,0E0,0E0,4.6356628E-4,6.789416E-4,0E0,0E0,0E0,0E0,0E0,0E0,5.3642243E-6,0E0,2.7921945E-3,4.605035E-4,3.473088E-5,0E0,1.5391652E-6,0E0,0E0,0E0,0E0,0E0,5.2785277E-3,1.3364488E-3,1.5594868E-3,1.5325062E-3,0E0,0E0,0E0,0E0,2.5846995E-5,9.91848E-4,0E0,7.7364675E-5,2.6980266E-3,1.7928837E-3,1.7639052E-2,1.991705E-3,7.34556E-4,5.026102E-3,7.446296E-4,4.2391382E-4,0E0,0E0,1.2937544E-5,0E0,1.43274665E-5,0E0,0E0,0E0,1.0020602E-3,1.448065E-3,2.5176443E-5,0E0,0E0,0E0,0E0,0E0,1.0113405E-3,4.6846615E-3,1.0639992E-4,1.6478216E-4,6.341943E-5,2.5033823E-4,1.7318875E-5,1.5904196E-4,0E0,0E0,3.6777073E-4,0E0,0E0,0E0,0E0,0E0,3.03064E-4,1.8709374E-4,1.4371052E-2,2.0814799E-3,3.5539892E-4,0E0,0E0,0E0,4.7593936E-4,5.254966E-3,0E0,6.408687E-5,0E0,0E0,0E0,0E0,0E0,0E0,0E0,4.0922314E-4,0E0,1.1734217E-3,0E0,0E0,2.1329621E-4,1.8832047E-4,1.3144843E-3,2.3974068E-3,0E0,0E0,0E0,0E0,0E0,0E0,0E0,0E0,0E0,0E0,0E0,0E0,0E0,8.109897E-5,0E0,0E0,0E0,0E0,1.1919808E-2,5.919914E-2,0E0,0E0,0E0,0E0,0E0,0E0,1.5326906E-3,2.0110959E-3,0E0,0E0,0E0,0E0,0E0,2.7459115E-4,0E0,2.2955886E-5,0E0,0E0,0E0,1.6324614E-4,1.19458884E-4,3.7194783E-5,4.757494E-6,1.0659174E-5,6.240261E-3,1.0414194E-2,9.478688E-3,5.262897E-3,0E0,3.6600512E-4,7.537694E-4,9.136618E-4,0E0,0E0,0E0,0E0,6.409563E-6,8.571922E-6,0E0,0E0,0E0,0E0,0E0,0E0,0E0,0E0,1.9825855E-3,6.3414953E-4,1.2094829E-2,7.6831356E-3,0E0,0E0,6.799755E-4,3.591678E-4,0E0,0E0,0E0,1.2015174E-5,2.1349231E-5,2.961957E-4,0E0,0E0,0E0,0E0,1.16192736E-4,8.657157E-5,0E0,1.5626515E-4,4.6920925E-3,0E0,2.6238468E-3,8.091604E-3,1.14131544E-4,3.9433362E-5,0E0,0E0,0E0,0E0,0E0,0E0,6.9313974E-5,0E0,0E0,0E0,0E0,0E0,0E0,0E0,3.4352303E-3,0E0,2.2435524E-3,1.1562305E-3,1.022001E-2,6.831996E-3,1.2157465E-5,0E0,0E0,0E0,0E0,0E0,7.94939E-4,8.291509E-4,5.417211E-4,1.2576021E-3,0E0,1.4372202E-4,1.0970144E-3,2.9228013E-3,8.678344E-3,7.236369E-3,0E0,0E0,1.5816727E-4,7.865406E-5,0E0,1.0553401E-4,0E0,0E0,7.8076497E-4,8.026946E-6,0E0,6.8686495E-6,1.252509E-4,3.5918085E-5,1.2157429E-3,3.390005E-4,6.116133E-3,3.128725E-3,1.2154484E-3,8.154074E-3,8.610077E-6,0E0,0E0,4.7751737E-6,0E0,0E0,8.8524446E-4,7.696438E-5,0E0,0E0,0E0,0E0,0E0,1.0375662E-5,0E0,0E0,6.690994E-4,0E0,0E0,0E0,4.538898E-3,1.472244E-3,1.0499973E-3,2.0093215E-3,2.7625647E-5,6.663791E-4,4.352715E-3,4.6678483E-3,0E0,0E0,0E0,0E0,6.618131E-6,3.3921748E-4,0E0,0E0,0E0,0E0,0E0,0E0,4.323749E-3,1.464349E-3,0E0,0E0,1.7106056E-5,2.9543135E-4,1.7537235E-4,3.670995E-4,0E0,0E0,1.3141704E-4,2.8413907E-4,1.2585018E-3,1.9412488E-3,1.7822133E-3,4.3825377E-3,0E0,0E0,0E0,4.268624E-5,3.244402E-3,2.7581006E-3,1.0227519E-4,0E0,0E0,0E0,0E0,0E0,0E0,0E0,1.3297173E-5,0E0,7.5870194E-6,1.2067284E-5,0E0,0E0,0E0,0E0,1.012669E-3,7.391613E-4,1.8006389E-4,0E0,3.982708E-3,3.891144E-3,0E0,0E0,3.3640084E-3,2.9042829E-5,5.1543955E-4,1.2869685E-4,0E0,1.0715503E-5,0E0,0E0,0E0,0E0,0E0,0E0,2.2445619E-4,1.8827419E-4,2.0517087E-5,2.6815862E-5,0E0,2.6278598E-5,0E0,1.4959696E-3,2.46361E-3,1.8058053E-3,2.90249E-3,0E0,0E0,0E0,8.451294E-6,0E0,0E0,0E0,0E0,0E0,0E0,0E0,0E0,0E0,0E0,0E0,0E0,0E0,0E0,3.8660296E-6,7.825629E-4,6.309346E-4,0E0,8.775126E-4,1.328454E-3,4.111142E-4,5.9530075E-4,2.5576018E-3,0E0,0E0,0E0,0E0,3.8329326E-4,3.978669E-5,0E0,3.284941E-4,1.9885204E-4,3.6941748E-4,0E0,7.548351E-4,8.825734E-5,0E0,1.9151888E-4,2.2376946E-5,2.1428578E-3,1.8309071E-3,8.006638E-6,0E0,1.9880536E-6,0E0,0E0,4.5108987E-5,0E0,3.630048E-6,0E0,0E0,2.2847307E-4,0E0,0E0,2.1143831E-5,7.5261887E-6,6.279349E-5,0E0,0E0,9.264033E-4,4.4597842E-4,6.014784E-5,1.6386855E-3,0E0,0E0,0E0,0E0,0E0,0E0,0E0,0E0,4.7953054E-5,0E0,0E0,0E0,0E0,0E0,0E0,2.3076136E-6,3.7457515E-4,4.5936235E-5,3.6307934E-5,5.2772404E-5,0E0,0E0,5.1460153E-4,6.059471E-4,0E0,0E0,0E0,0E0,1.7734244E-4,0E0,0E0,0E0,0E0,0E0,0E0,0E0,4.0223855E-5,1.579395E-5,3.5812693E-5,3.1529402E-4,0E0,0E0,0E0,2.8134918E-6,0E0,0E0,0E0,2.7126553E-6,7.325597E-6,0E0,0E0,0E0,0E0,0E0,0E0,0E0],"parents":[2147483647,0,0,1,1,2,2,3,3,4,4,5,5,6,6,7,7,8,8,9,9,10,10,11,11,12,12,14,14,15,15,16,16,17,17,19,19,20,20,21,21,23,23,24,24,27,27,28,28,29,29,30,30,35,35,36,36,37,37,39,39,40,40,43,43,45,45,46,46,47,47,48,48,53,53,54,54,55,55,56,56,59,59,60,60,61,61,62,62,63,63,64,64,65,65,66,66,69,69,70,70,71,71,72,72,73,73,74,74,76,76,77,77,78,78,79,79,80,80,82,82,83,83,84,84,87,87,88,88,89,89,90,90,92,92,98,98,99,99,100,100,101,101,102,102,103,103,104,104,113,113,114,114,115,115,116,116,117,117,118,118,121,121,122,122,123,123,124,124,126,126,129,129,130,130,137,137,139,139,140,140,141,141,143,143,149,149,150,150,151,151,152,152,157,157,158,158,160,160,161,161,162,162,163,163,164,164,165,165,166,166,167,167,168,168,171,171,173,173,177,177,178,178,179,179,185,185,186,186,187,187,188,188,189,189,190,190,191,191,192,192,195,195,201,201,202,202,203,203,204,204,205,205,209,209,210,210,212,212,220,220,222,222,225,225,226,226,227,227,228,228,242,242,247,247,248,248,255,255,256,256,262,262,264,264,268,268,269,269,270,270,271,271,272,272,273,273,274,274,275,275,276,276,278,278,279,279,280,280,285,285,286,286,295,295,296,296,297,297,298,298,301,301,302,302,306,306,307,307,308,308,313,313,314,314,316,316,317,317,319,319,320,320,321,321,322,322,329,329,337,337,339,339,340,340,341,341,342,342,343,343,349,349,350,350,351,351,352,352,354,354,355,355,356,356,357,357,358,358,361,361,362,362,364,364,367,367,368,368,370,370,371,371,372,372,373,373,374,374,375,375,376,376,377,377,378,378,379,379,382,382,385,385,386,386,392,392,395,395,399,399,400,400,401,401,402,402,403,403,404,404,405,405,406,406,411,411,412,412,419,419,420,420,423,423,424,424,425,425,426,426,429,429,430,430,431,431,432,432,433,433,434,434,438,438,439,439,440,440,441,441,449,449,451,451,452,452,457,457,458,458,459,459,461,461,462,462,465,465,466,466,467,467,468,468,470,470,477,477,478,478,479,479,480,480,482,482,484,484,485,485,486,486,487,487,491,491,506,506,507,507,508,508,510,510,511,511,512,512,513,513,514,514,519,519,520,520,522,522,523,523,524,524,526,526,527,527,529,529,530,530,531,531,532,532,533,533,535,535,538,538,540,540,543,543,546,546,547,547,548,548,551,551,552,552,553,553,554,554,563,563,570,570,571,571,572,572,573,573,574,574,577,577,578,578,583,583,591,591,592,592,593,593,594,594,598,598,602,602,603,603],"right_children":[2,4,6,8,10,12,14,16,18,20,22,24,26,-1,28,30,32,34,-1,36,38,40,-1,42,44,-1,-1,46,48,50,52,-1,-1,-1,-1,54,56,58,-1,60,62,-1,-1,64,-1,66,68,70,72,-1,-1,-1,-1,74,76,78,80,-1,-1,82,84,86,88,90,92,94,96,-1,-1,98,100,102,104,106,108,-1,110,112,114,116,118,-1,120,122,124,-1,-1,126,128,130,132,-1,134,-1,-1,-1,-1,-1,136,138,140,142,144,146,148,-1,-1,-1,-1,-1,-1,-1,-1,150,152,154,156,158,160,-1,-1,162,164,166,168,-1,170,-1,-1,172,174,-1,-1,-1,-1,-1,-1,176,-1,178,180,182,-1,184,-1,-1,-1,-1,-1,186,188,190,192,-1,-1,-1,-1,194,196,-1,198,200,202,204,206,208,210,212,214,-1,-1,216,-1,218,-1,-1,-1,220,222,224,-1,-1,-1,-1,-1,226,228,230,232,234,236,238,240,-1,-1,242,-1,-1,-1,-1,-1,244,246,248,250,252,-1,-1,-1,254,256,-1,258,-1,-1,-1,-1,-1,-1,-1,260,-1,262,-1,-1,264,266,268,270,-1,-1,-1,-1,-1,-1,-1,-1,-1,-1,-1,-1,-1,272,-1,-1,-1,-1,274,276,-1,-1,-1,-1,-1,-1,278,280,-1,-1,-1,-1,-1,282,-1,284,-1,-1,-1,286,288,290,292,294,296,298,300,302,-1,304,306,308,-1,-1,-1,-1,310,312,-1,-1,-1,-1,-1,-1,-1,-1,314,316,318,320,-1,-1,322,324,-1,-1,-1,326,328,330,-1,-1,-1,-1,332,334,-1,336,338,-1,340,342,344,346,-1,-1,-1,-1,-1,-1,348,-1,-1,-1,-1,-1,-1,-1,350,-1,352,354,356,358,360,-1,-1,-1,-1,-1,362,364,366,368,-1,370,372,374,376,378,-1,-1,380,382,-1,384,-1,-1,386,388,-1,390,392,394,396,398,400,402,404,406,408,-1,-1,410,-1,-1,412,414,-1,-1,-1,-1,-1,416,-1,-1,418,-1,-1,-1,420,422,424,426,428,430,432,434,-1,-1,-1,-1,436,438,-1,-1,-1,-1,-1,-1,440,442,-1,-1,444,446,448,450,-1,-1,452,454,456,458,460,462,-1,-1,-1,464,466,468,470,-1,-1,-1,-1,-1,-1,-1,472,-1,474,476,-1,-1,-1,-1,478,480,482,-1,484,486,-1,-1,488,490,492,494,-1,496,-1,-1,-1,-1,-1,-1,498,500,502,504,-1,506,-1,508,510,512,514,-1,-1,-1,516,-1,-1,-1,-1,-1,-1,-1,-1,-1,-1,-1,-1,-1,-1,518,520,522,-1,524,526,528,530,532,-1,-1,-1,-1,534,536,-1,538,540,542,-1,544,546,-1,548,550,552,554,556,-1,558,-1,-1,560,-1,562,-1,-1,564,-1,-1,566,568,570,-1,-1,572,574,576,578,-1,-1,-1,-1,-1,-1,-1,-1,580,-1,-1,-1,-1,-1,-1,582,584,586,588,590,-1,-1,592,594,-1,-1,-1,-1,596,-1,-1,-1,-1,-1,-1,-1,598,600,602,604,-1,-1,-1,606,-1,-1,-1,608,610,-1,-1,-1,-1,-1,-1,-1],"split_conditions":[8.7581474E-1,-1.3574182E0,2.489877E-1,7.2340953E-1,-7.188563E-1,1.9495765E0,-2.079022E0,-1.3574182E0,5.764606E-1,1.4255617E0,1.1057491E0,3.1918805E-2,-9.333289E-1,-7.270576E-3,-6.297424E-2,-1.8707155E0,1.2039552E0,3.274273E-1,4.5613368E-4,-1.19671E0,-7.7195144E-1,1.7071556E0,-6.4790137E-3,2.3402866E-2,4.5216167E-1,-8.160995E-3,-3.8105715E-3,2.5218165E-1,1.5755898E0,-7.98603E-1,1.3774652E0,2.1450764E-3,-1.549125E-4,-1.8291231E-3,-3.8643094E-4,3.1155658E-1,2.2832108E-1,-1.0129629E0,-8.957825E-3,-1.474881E0,-9.660382E-2,-3.5744717E-3,1.4822213E-3,1.0337485E0,-2.819467E-3,-1.003678E-1,3.8991252E-1,2.9497904E-1,-2.8010556E-1,-7.298806E-5,2.6281762E-3,6.2612975E-3,2.066171E-3,-1.3437092E0,2.5315964E-1,-1.1601148E0,-2.2829568E-1,-3.6511838E-3,-5.0279405E-4,-1.3789935E0,7.018469E-1,-1.2087678E-1,1.4211074E0,2.7551585E-1,8.3455974E-1,2.9980046E-1,-8.944124E-1,2.5759432E-3,7.3550775E-4,6.93024E-1,2.8293684E-1,-1.774513E-1,-5.410826E-1,-1.3474648E0,1.5742097E0,2.5677388E-3,2.6174578E-1,-1.204541E0,-1.24824286E-1,3.1549624E-1,5.1830554E-1,-5.5261427E-3,-1.342924E0,-1.2708757E0,1.6132723E0,-1.9194562E-3,-7.907547E-3,-1.0349106E0,-1.0263122E0,-7.727083E-1,-1.5269351E-1,-1.1822484E-3,-5.8475405E-1,-1.5086833E-4,6.5452885E-5,-2.1702354E-3,-7.8279414E-4,-1.0705364E-3,5.1297617E-1,4.0571365E-1,8.202435E-1,-3.61959E-1,3.181586E-1,5.1012194E-1,2.1101858E-1,1.1749696E-3,-2.5133982E-3,-7.0324144E-3,-1.8012617E-3,2.558385E-4,9.3361124E-4,5.014295E-3,-4.8291948E-4,1.0311304E0,3.4265965E-1,3.270754E-1,-2.185004E0,-5.969558E-2,1.107127E0,4.5414828E-4,-6.1189564E-4,3.000911E-1,1.547874E0,-7.949194E-1,-1.6702953E-1,1.1667246E-3,-1.0129629E0,-2.3822393E-4,-1.2639132E-3,-5.854909E-1,7.228868E-1,1.5762625E-3,5.2726426E-4,3.3512354E-4,2.1723204E-3,3.996788E-4,1.8028219E-3,3.6388686E-1,-1.031075E-3,7.3263615E-1,1.3353094E0,1.5319644E0,-8.562497E-4,2.9771096E-1,4.944488E-4,-1.432728E-3,3.9553153E-4,6.631603E-4,3.2853913E-3,-1.2541803E0,2.014525E-1,7.407584E-1,4.6731135E-1,-3.096393E-3,-1.2726492E-3,-1.4145314E-3,-6.3862945E-3,-9.270398E-1,5.3634863E-2,-3.7281201E-3,-1.11786656E-1,8.102473E-1,7.471841E-2,1.6207323E0,2.0055503E-1,-7.966756E-1,2.6597688E-1,-4.397734E-1,5.1297617E-1,2.9476287E-4,5.7997393E-5,-5.963901E-1,2.045042E-3,-6.480589E-1,9.180358E-4,9.0024205E-6,-2.6608404E-4,-1.3546461E0,-1.0155278E0,5.3530115E-1,3.2806795E-4,-3.7169647E-3,-1.0326455E-3,-2.5127255E-4,-4.50979E-5,-8.9703244E-1,-1.380148E-1,-1.3915195E0,-1.0681973E0,4.3935788E-1,1.344594E0,7.9231584E-1,2.0013407E-1,1.1241228E-3,4.076614E-3,3.2478243E-1,1.0270867E-3,3.736129E-4,-5.0944835E-4,6.385206E-3,2.3816957E-3,7.399325E-1,4.478746E-2,1.0401309E0,1.766335E0,7.2944395E-2,-3.985418E-3,3.2135204E-3,8.346094E-4,-7.4629925E-2,-9.697182E-1,1.1202323E-3,-7.814251E-1,5.0141285E-3,1.1190051E-3,4.3950413E-4,1.1860417E-5,1.4162262E-3,4.9237083E-3,-6.6341273E-4,8.921694E-1,-2.36904E-3,-7.2381294E-1,-7.2217424E-4,-1.9340534E-3,-1.8533069E-1,-1.1743056E0,-9.256753E-1,8.548679E-1,-2.1766881E-4,7.4386137E-4,3.5451953E-3,1.5938178E-3,-1.2281795E-3,-1.4026121E-4,1.9079198E-3,3.5645484E-4,5.135732E-3,1.4619261E-3,3.3452496E-4,2.1749684E-3,-1.3091256E-3,-4.8885934E-2,2.528948E-3,2.9726932E-4,2.9748635E-4,-8.4595365E-4,-1.418565E0,-6.516362E-2,5.3345794E-3,1.0998662E-3,-1.4268943E-3,3.3664258E-4,-1.2769396E-3,-3.944522E-3,-5.185784E-1,-5.055992E-2,-1.2709631E-4,-1.2015929E-3,-1.5007427E-3,-3.6690512E-3,-9.2733727E-4,1.3235404E0,-1.1080708E-3,-1.1821151E0,1.7435742E-4,1.4235013E-3,-1.6172081E-3,-4.423713E-1,3.8445777E-1,2.1101858E-1,-2.231813E-1,-7.2287105E-2,-1.0168543E0,-1.0694383E0,-3.5759273E-1,2.677057E-1,-1.236543E-3,1.1621349E-1,1.1605776E-1,-1.3546461E0,-5.704582E-3,-1.486367E-3,3.2502817E-4,-1.6312767E-4,-1.4155246E0,-1.4328151E0,-3.941639E-3,-2.0101732E-3,-6.4868065E-5,-8.192681E-4,-6.918262E-5,-4.0023704E-4,4.2240313E-4,1.1043181E-5,-1.3214566E0,-1.3329749E0,8.8984036E-1,-1.2712337E0,1.1450585E-2,3.1987287E-3,7.462989E-1,-2.0799227E-1,-4.4006337E-3,-9.5051556E-4,-2.091954E-3,1.0137302E0,7.806245E-1,1.0138955E0,1.8634555E-5,-2.744763E-4,2.2178372E-4,9.23275E-4,-1.474881E0,-1.3318328E0,1.9976902E-3,-1.3184863E0,1.2617105E0,-6.130218E-3,7.134031E-2,-1.3576365E0,6.3891506E-1,6.425552E-1,2.5142735E-4,1.8530767E-3,-5.5986794E-4,-1.475538E-4,1.6627085E-3,4.059077E-4,5.7733923E-1,3.3773948E-4,-1.2865306E-3,-3.3973341E-3,3.3397577E-4,-5.369248E-4,-4.368661E-4,5.222819E-4,2.391954E-1,-2.6864456E-3,-1.3921201E0,-1.3243729E-1,-1.354791E0,-7.828834E-1,6.215201E-1,-5.195167E-4,-2.1881333E-3,-1.076555E-3,-2.7447843E-4,-9.7051833E-4,1.0986565E-1,-8.8721365E-1,-1.3922156E0,1.4206161E0,1.750258E-3,-7.249946E-1,-1.3748854E0,1.8596797E-1,1.9134139E-1,-8.944124E-1,4.5020107E-4,1.1354895E-5,7.716589E-1,-1.1464565E0,3.19951E-3,-2.5420675E-1,-1.010978E-3,1.11988E-3,-1.6410184E-1,-1.4302878E0,2.6230965E-4,1.3724071E-1,-1.9128282E-1,-1.3521143E0,3.724177E-1,-1.3326366E0,1.6342261E0,-8.987183E-1,-1.004669E0,-4.0705752E-1,-3.876454E-1,1.16501724E-4,8.6793705E-4,-1.2816812E0,-3.7410064E-5,1.0752556E-3,-8.939228E-1,-7.761338E-2,5.2456785E-4,8.469327E-5,-6.253232E-4,-1.3253988E-4,7.3235325E-4,-1.3858941E0,-4.8292745E-4,-1.9817404E-3,-7.9164374E-1,9.5315464E-4,4.624608E-4,1.8946625E-3,1.1920004E0,1.5007702E-1,1.3237855E-1,1.3119796E-1,3.2720566E-1,-3.7192747E-1,-1.2811453E0,-6.597551E-1,-3.0569392E-4,-1.1655749E-3,2.1228686E-4,-4.1968656E-6,-1.4791787E0,-7.3835105E-1,1.4747478E-3,2.316301E-4,-2.4145974E-4,7.5087024E-5,4.589072E-3,1.8353856E-3,-5.8239007E-1,1.3157785E-1,8.812017E-4,4.7736736E-3,-1.4381859E0,9.7946656E-1,-1.0802624E0,1.7078515E-2,1.0768564E-3,3.1923736E-4,-2.0615357E-1,3.5823187E-1,-1.2888939E0,2.838218E-1,-5.603351E-1,2.8249034E-1,1.4969292E-4,7.0742494E-4,1.3314185E-3,1.3773948E0,1.5742097E0,1.118783E0,-1.3219382E0,-2.4703403E-3,-2.592088E-4,1.5845643E-4,-2.8878294E-3,-1.269167E-3,-1.6843046E-3,-1.2773779E-4,-1.0549202E0,1.0203015E-3,-1.2728505E0,1.346709E-1,-1.7740366E-3,6.943918E-6,4.934585E-4,4.798015E-3,-4.113816E-2,-9.781892E-1,-1.3430556E0,3.0583495E-3,-1.0737389E0,5.4922205E-1,3.332068E-3,1.3502777E-3,1.8062022E0,-2.270824E0,-7.291743E-1,1.2732825E-1,-4.6108692E-4,-1.3181698E0,-2.821525E-4,3.5380373E-5,-1.2634518E-4,-6.009298E-4,2.640737E-4,-7.852114E-5,-7.386672E-1,2.468342E-1,-1.2499902E-1,-1.0144732E0,1.435582E-3,-1.2368225E0,1.8317541E-3,6.904087E-2,-5.130191E-1,8.7723815E-1,-1.39129E0,-2.457121E-3,-4.0572096E-4,-1.6737512E-3,-1.190633E0,-2.3217506E-3,4.154251E-4,1.8664541E-3,4.655812E-5,5.0206075E-4,1.6974868E-3,3.637376E-3,4.8653246E-4,1.6718612E-3,-1.1093577E-4,-5.98097E-4,3.1368184E-4,1.3743183E-3,3.9389424E-4,3.8262498E-1,5.2584535E-1,1.2070839E-1,-5.2265625E-4,6.1060643E-1,-7.5227624E-1,6.301265E-1,-1.3762406E0,6.618215E-1,-6.43322E-4,-1.2515702E-4,-1.3964872E-4,6.201729E-5,-2.0117854E-1,2.4175687E0,1.2409254E-3,1.6922037E-1,1.8088803E-1,4.241207E-1,-8.9500425E-4,2.4524856E-1,-7.906592E-1,-1.7608585E-3,-9.917909E-1,-1.8221045E0,-9.853656E-1,-3.6127555E-1,-1.0909506E0,-1.9038366E-3,-7.095213E-2,3.4132533E-4,4.440809E-4,3.102505E-1,1.784117E-3,-1.6227372E0,3.2331967E-3,5.3726864E-4,-3.4818952E-3,1.9231876E-3,3.44343E-4,6.3004583E-1,-1.3950869E0,-1.325631E0,8.8396895E-4,4.022976E-4,8.8498527E-1,-1.1391615E0,6.3621217E-1,-2.0799227E-1,-3.845499E-4,-8.972591E-4,-2.4670918E-4,-6.5680964E-5,-7.9051516E-4,-2.032133E-4,1.578358E-4,6.545417E-4,4.5032114E-1,9.786512E-4,-1.6847756E-4,-6.059713E-4,3.7493758E-4,2.749595E-5,-8.6372216E-5,-9.050625E-1,7.629011E-1,-1.4686167E0,-1.2487761E0,-1.2637893E0,2.0082805E-3,7.19947E-4,-3.9571735E-1,-3.320305E-1,2.930778E-4,-2.1876609E-4,-3.746716E-4,-7.559659E-4,-1.2324661E0,1.2542603E-3,-1.8074154E-5,7.47021E-4,-4.846199E-4,1.1886212E-4,1.3027115E-3,5.365695E-4,-1.2777418E0,-4.6365667E-2,-1.2811792E0,6.6120833E-1,2.981736E-3,6.558913E-4,6.779485E-4,-1.2728412E0,-2.6913433E-4,-1.1219283E-3,-2.882597E-4,1.8781032E-1,-1.4499211E0,1.5433253E-3,-6.338847E-5,1.0615368E-4,1.2913882E-5,2.1717418E-4,2.1817915E-4,-6.632489E-5],"split_indices":[661,711,626,280,803,763,645,685,10,244,572,765,24,0,479,350,38,10,0,349,601,491,0,390,546,0,0,102,635,0,441,0,0,0,0,113,648,0,0,271,166,0,0,138,0,155,116,756,49,0,0,0,0,193,8,388,8,0,0,0,739,8,10,561,62,0,8,0,0,116,134,217,454,0,49,0,8,1,687,207,700,0,0,554,775,0,0,0,0,740,181,0,0,0,0,0,0,0,0,7,159,23,0,50,0,0,0,0,0,0,0,0,0,387,257,194,8,271,116,0,0,180,349,23,349,0,0,0,0,16,1,0,0,0,0,0,0,0,0,531,8,76,0,0,0,0,0,0,0,699,337,24,155,0,0,0,0,0,780,0,0,427,231,100,739,10,732,12,0,0,0,4,0,24,0,0,0,168,140,35,0,0,0,0,0,610,47,5,740,8,10,0,8,0,0,441,0,0,0,0,0,6,0,724,24,0,0,0,0,302,190,0,0,0,0,0,0,0,0,0,648,0,76,0,0,10,180,103,60,0,0,0,0,0,0,0,0,0,0,0,0,0,26,0,0,0,0,50,1,0,0,0,0,0,0,90,570,0,0,0,0,0,168,0,0,0,0,0,8,184,0,0,0,804,649,89,661,0,23,168,467,0,0,0,0,0,24,0,0,0,0,0,0,0,0,224,5,491,35,0,0,151,467,0,0,0,10,0,713,0,0,0,0,50,0,0,3,283,0,219,609,0,0,0,0,0,0,0,0,76,0,0,0,0,0,0,0,246,0,689,76,68,518,0,0,0,0,0,0,387,10,0,701,0,49,0,36,554,593,0,0,12,35,0,8,0,0,674,0,0,5,12,0,714,91,140,596,102,438,25,0,0,8,0,0,701,3,0,0,0,0,0,0,0,0,271,0,0,0,426,51,515,398,0,285,400,531,0,0,0,0,0,740,0,0,0,0,0,0,635,649,0,0,0,556,16,519,0,0,36,0,0,675,10,320,0,0,0,387,244,10,3,0,0,0,0,0,0,0,0,0,2,0,0,0,0,0,375,387,3,0,268,452,0,0,49,12,25,1,0,0,0,0,0,0,0,0,24,8,10,8,0,0,0,320,531,504,462,0,0,0,0,0,0,0,0,0,0,0,0,0,0,0,0,0,0,0,519,307,0,35,101,177,147,62,0,0,0,0,13,8,0,47,701,1,0,519,8,0,116,75,739,593,62,0,2,0,0,64,0,10,0,0,545,0,0,10,0,363,0,0,519,675,467,467,0,0,0,0,0,0,0,0,3,0,0,0,0,0,0,24,77,0,0,0,0,0,181,376,0,0,0,0,16,0,0,0,0,0,0,0,0,10,4,36,0,0,0,0,0,0,0,8,0,0,0,0,0,0,0,0],"split_type":[0,0,0,0,0,0,0,0,0,0,0,0,0,0,0,0,0,0,0,0,0,0,0,0,0,0,0,0,0,0,0,0,0,0,0,0,0,0,0,0,0,0,0,0,0,0,0,0,0,0,0,0,0,0,0,0,0,0,0,0,0,0,0,0,0,0,0,0,0,0,0,0,0,0,0,0,0,0,0,0,0,0,0,0,0,0,0,0,0,0,0,0,0,0,0,0,0,0,0,0,0,0,0,0,0,0,0,0,0,0,0,0,0,0,0,0,0,0,0,0,0,0,0,0,0,0,0,0,0,0,0,0,0,0,0,0,0,0,0,0,0,0,0,0,0,0,0,0,0,0,0,0,0,0,0,0,0,0,0,0,0,0,0,0,0,0,0,0,0,0,0,0,0,0,0,0,0,0,0,0,0,0,0,0,0,0,0,0,0,0,0,0,0,0,0,0,0,0,0,0,0,0,0,0,0,0,0,0,0,0,0,0,0,0,0,0,0,0,0,0,0,0,0,0,0,0,0,0,0,0,0,0,0,0,0,0,0,0,0,0,0,0,0,0,0,0,0,0,0,0,0,0,0,0,0,0,0,0,0,0,0,0,0,0,0,0,0,0,0,0,0,0,0,0,0,0,0,0,0,0,0,0,0,0,0,0,0,0,0,0,0,0,0,0,0,0,0,0,0,0,0,0,0,0,0,0,0,0,0,0,0,0,0,0,0,0,0,0,0,0,0,0,0,0,0,0,0,0,0,0,0,0,0,0,0,0,0,0,0,0,0,0,0,0,0,0,0,0,0,0,0,0,0,0,0,0,0,0,0,0,0,0,0,0,0,0,0,0,0,0,0,0,0,0,0,0,0,0,0,0,0,0,0,0,0,0,0,0,0,0,0,0,0,0,0,0,0,0,0,0,0,0,0,0,0,0,0,0,0,0,0,0,0,0,0,0,0,0,0,0,0,0,0,0,0,0,0,0,0,0,0,0,0,0,0,0,0,0,0,0,0,0,0,0,0,0,0,0,0,0,0,0,0,0,0,0,0,0,0,0,0,0,0,0,0,0,0,0,0,0,0,0,0,0,0,0,0,0,0,0,0,0,0,0,0,0,0,0,0,0,0,0,0,0,0,0,0,0,0,0,0,0,0,0,0,0,0,0,0,0,0,0,0,0,0,0,0,0,0,0,0,0,0,0,0,0,0,0,0,0,0,0,0,0,0,0,0,0,0,0,0,0,0,0,0,0,0,0,0,0,0,0,0,0,0,0,0,0,0,0,0,0,0,0,0,0,0,0,0,0,0,0,0,0,0,0,0,0,0,0,0,0,0,0,0,0,0,0,0,0,0,0,0,0,0,0,0,0,0,0,0,0,0,0,0,0,0,0,0,0,0],"sum_hessian":[1.052E3,8.67E2,1.85E2,3.5E1,8.32E2,6.7E1,1.18E2,2.9E1,6E0,1.71E2,6.61E2,5.6E1,1.1E1,8E0,1.1E2,2.3E1,6E0,5E0,1E0,1.59E2,1.2E1,6.56E2,5E0,1.1E1,4.5E1,3E0,8E0,1.5E1,9.5E1,5E0,1.8E1,5E0,1E0,4E0,1E0,2.5E1,1.34E2,6E0,6E0,6.39E2,1.7E1,7E0,4E0,4.3E1,2E0,7E0,8E0,6.9E1,2.6E1,1E0,4E0,1.6E1,2E0,1.9E1,6E0,8.5E1,4.9E1,5E0,1E0,8E0,6.31E2,9E0,8E0,3.6E1,7E0,3E0,4E0,6E0,2E0,7E0,6.2E1,1.6E1,1E1,5E0,1.4E1,2E0,4E0,9E0,7.6E1,1.8E1,3.1E1,6E0,2E0,5.59E2,7.2E1,4E0,5E0,5E0,3E0,2.7E1,9E0,4E0,3E0,2E0,1E0,2E0,2E0,4E0,3E0,5E0,5.7E1,1.2E1,4E0,5E0,5E0,1E0,4E0,1.3E1,1E0,1E0,3E0,8E0,1E0,5.3E1,2.3E1,1.1E1,7E0,2E1,1.1E1,1E0,1E0,2.4E1,5.35E2,6E1,1.2E1,3E0,2E0,1E0,2E0,7E0,2E1,5E0,4E0,1E0,2E0,2E0,1E0,2E0,3E0,5E1,7E0,1E1,2E0,3E0,1E0,3E0,2E0,1E0,4E0,4.1E1,1.2E1,9E0,1.4E1,8E0,3E0,1E0,6E0,5E0,1.5E1,9E0,2E0,1.4E1,1E1,5.24E2,1.1E1,7E0,5.3E1,5E0,7E0,1E0,1E0,3E0,4E0,1.9E1,1E0,1E0,1E0,2.1E1,2.9E1,6E0,1E0,9E0,1E0,2E0,1E0,1.1E1,3E1,5E0,7E0,3E0,6E0,1E1,4E0,1E0,4E0,1.1E1,4E0,1E0,1E0,1E1,4E0,6E0,4E0,5.13E2,1.1E1,6E0,5E0,4E0,3E0,1.5E1,3.8E1,2E0,3E0,6E0,1E0,2E0,1E0,1E0,1.8E1,2E0,1.9E1,4E0,2.5E1,2E0,4E0,5E0,6E0,1E1,2E1,1E0,4E0,3E0,4E0,2E0,1E0,4E0,2E0,9E0,1E0,1E0,3E0,4E0,7E0,5E0,1E0,2E0,2E0,4.79E2,3.4E1,9E0,2E0,5E0,1E0,2E0,1.3E1,1.1E1,2.7E1,1E0,2E0,3E0,1.6E1,1E0,2.4E1,3E0,2E0,2E0,4E0,4E0,6E0,1.6E1,4E0,5E0,2E0,2.2E1,4.57E2,9E0,2.5E1,4E0,7E0,1.3E1,1.4E1,2.3E1,1E0,1E0,1E0,2E0,4E0,1.2E1,4E0,1E0,3E0,1E0,4E0,1E0,1E0,1.5E1,7E0,2.9E1,4.28E2,6E0,3E0,1.3E1,1.2E1,6E0,1E0,8E0,5E0,3E0,1.1E1,1E0,1E0,1E0,3E0,1.2E1,3E0,2E0,5E0,2.6E1,3E0,5.4E1,3.74E2,5E0,8E0,2E0,1E1,3E0,2E0,2E0,1E0,7E0,4E0,2E0,1E1,1E0,2E0,2E0,3E0,2.1E1,5E0,4.3E1,1.1E1,3.7E1,3.37E2,2E0,3E0,3E0,5E0,4E0,3E0,1.4E1,7E0,3E0,4E1,4E0,7E0,9E0,2.8E1,1.62E2,1.75E2,1E0,1E0,9E0,5E0,3E0,4E0,2E0,1E0,3.7E1,3E0,3E0,4E0,5E0,4E0,1.7E1,1.1E1,1.29E2,3.3E1,2.3E1,1.52E2,8E0,1E0,2E0,3E0,1E0,3E0,3.1E1,6E0,2E0,1E0,3E0,1E0,2E0,3E0,1E0,3E0,1.5E1,2E0,3E0,8E0,1.24E2,5E0,1.6E1,1.7E1,4E0,1.9E1,3.7E1,1.15E2,1E0,7E0,1E0,2E0,2E0,2.9E1,5E0,1E0,2E0,1E0,1.2E1,3E0,1.14E2,1E1,2E0,3E0,2E0,1.4E1,7E0,1E1,2E0,2E0,1.1E1,8E0,9E0,2.8E1,1.6E1,9.9E1,1E0,1E0,3E0,2.6E1,1.01E2,1.3E1,4E0,6E0,1E0,1E0,1E1,4E0,6E0,1E0,4E0,6E0,8E0,3E0,7E0,1E0,1E0,8E0,1.9E1,9E0,5E0,1.1E1,4.2E1,5.7E1,2.4E1,2E0,9.6E1,5E0,1E1,3E0,2E0,2E0,2E0,2E0,1E0,7E0,2E0,1E0,1E1,9E0,4E0,5E0,1E0,4E0,7E0,3.5E1,2.6E1,3.1E1,9.4E1,2E0,1E0,4E0,3E0,7E0,2E0,1E0,1E0,1E0,4E0,6E0,3E0,6E0,2E0,2E0,1E0,4E0,2E0,2E0,2.1E1,1.4E1,3E0,2.3E1,2.2E1,9E0,2.4E1,7E1,2E0,1E0,1E0,1E0,1.6E1,5E0,3E0,1.1E1,1.2E1,1.1E1,3E0,1.9E1,7E0,2E0,1.5E1,9E0,3.5E1,3.5E1,7E0,9E0,4E0,1E0,4E0,7E0,9E0,3E0,1E1,1E0,1.2E1,7E0,1E0,6E0,3E0,1.2E1,3E0,6E0,2.4E1,1.1E1,9E0,2.6E1,3E0,4E0,2E0,2E0,4E0,3E0,1E0,2E0,6E0,6E0,3E0,3E0,2E0,1E0,3E0,9E0,2.1E1,3E0,3E0,8E0,7E0,2E0,1.1E1,1.5E1,4E0,2E0,4E0,5E0,1.7E1,4E0,1E0,2E0,2E0,1E0,4E0,4E0,3E0,8E0,5E0,1E1,1.6E1,1E0,1E0,2E0,1E0,7E0,2E0,3E0,2E0,8E0,1E0,1E0,1E0,2E0,1E0,1E0],"tree_param":{"num_deleted":"0","num_feature":"819","num_nodes":"611","size_leaf_vector":"1"}},{"base_weights":[7.009998E-4,1.5280158E-3,-5.6795772E-2,2.6072278E-3,-2.4229584E-2,-2.106119E-2,-8.543088E-3,-2.6825208E-3,8.085204E-3,2.5471712E-2,-3.0131608E-2,3.7175703E-3,-2.9940372E-3,1.6636059E-2,-6.4226133E-3,1.1294176E-2,-4.4494704E-3,3.0194062E-3,3.2911496E-4,4.0660766E-3,-3.4274455E-2,1.0345257E-3,-4.7689016E-4,6.0981875E-3,1.1749182E-2,-3.8539094E-3,-3.705243E-2,9.080225E-3,3.2290727E-2,-1.5443197E-4,-2.5662929E-2,2.008654E-3,-4.9606734E-4,-5.1023797E-3,-3.7993986E-2,6.6278446E-3,4.4887226E-2,1.7421672E-4,-2.2294968E-2,-1.685092E-2,-7.100083E-2,3.449078E-2,6.9736643E-3,9.606404E-2,1.1385536E-2,-3.146796E-2,3.5075962E-3,-2.8661765E-2,-2.1144408E-3,-1.9731228E-3,-8.809703E-4,-1.2673672E-2,-4.1401973E-3,1.662573E-2,-1.7698474E-2,1.9987035E-3,5.2703447E-3,-2.108227E-2,5.858416E-3,-2.7587833E-2,3.0038046E-2,1.00749E-2,-2.536292E-2,-9.210311E-3,-2.3037026E-2,4.250986E-2,-6.609982E-4,9.954121E-3,-1.0321489E-2,1.1153086E-2,4.884781E-3,1.5182007E-2,-1.6137911E-3,8.9807063E-4,-3.764663E-3,1.3263237E-3,3.4652655E-3,-5.595698E-4,-2.9909648E-3,-4.8349565E-4,1.6632954E-4,-2.3452104E-4,-4.2843003E-5,-1.6542329E-3,1.4004778E-4,2.7202165E-2,-9.4893976E-4,-2.2793815E-2,8.38134E-3,-1.1710339E-2,-6.055288E-2,3.072351E-2,2.8191044E-3,-1.9954816E-2,-4.796607E-2,4.171564E-3,1.0850942E-3,-3.907238E-4,1.8042781E-3,-3.3666722E-2,1.2995426E-3,-8.229267E-4,-3.0165776E-3,4.4918835E-2,1.2280095E-3,8.0136454E-4,-1.2006856E-3,-2.6979985E-2,1.0992371E-2,-1.41564E-4,-2.7845718E-2,2.4279382E-2,5.6500146E-3,4.148569E-3,-1.6868679E-2,5.9086345E-3,3.342591E-2,1.7931517E-2,-1.3456833E-2,-1.4433819E-2,-3.997104E-3,1.4284939E-3,1.6518276E-3,-4.248425E-3,-3.6639247E-2,-7.982909E-3,-1.3745134E-2,4.840869E-2,6.5937866E-3,1.18224025E-2,-5.321731E-3,8.329039E-3,-2.3358187E-2,-5.8205016E-2,-1.9493828E-3,-3.5324264E-2,-6.888094E-4,-4.592542E-3,1.2433941E-3,4.6959207E-3,1.770365E-3,-3.259644E-3,-4.056026E-3,4.106716E-2,9.937444E-3,2.105239E-2,-8.083398E-3,-3.4064904E-2,-4.862856E-3,3.0092284E-2,8.960283E-3,-1.6227368E-3,1.130742E-3,2.1340183E-3,2.3266887E-2,-2.2283947E-2,-3.174787E-3,9.538123E-3,-9.748894E-4,3.662139E-2,-8.4445346E-5,7.098033E-4,2.3012E-3,-1.8081933E-2,3.1385256E-4,-1.648257E-2,-5.703487E-4,-8.086367E-5,3.286378E-4,-1.1704889E-2,1.9862909E-2,-4.6615764E-2,-2.5381371E-3,2.8002472E-4,-1.8581542E-3,5.9789363E-3,2.5235058E-3,2.1054303E-2,-8.808699E-3,1.0742046E-3,2.2167554E-2,-8.11632E-3,3.0667702E-2,-3.4118033E-4,2.120715E-3,-3.3362154E-2,-1.1837758E-2,-1.0758446E-3,-6.1540302E-2,-3.784862E-3,-1.5134993E-3,6.588036E-5,-6.562592E-4,1.0189844E-3,-1.1139421E-3,1.1794564E-3,5.37377E-3,8.594381E-3,3.5517726E-2,2.386792E-3,7.465362E-4,-2.326085E-2,-1.7319784E-3,-1.0773294E-2,-3.943777E-3,-6.852393E-4,1.547645E-4,8.317098E-4,3.1774545E-3,-1.20741504E-4,1.1804062E-3,2.5032922E-3,-5.3430814E-4,1.714733E-2,-2.1676075E-4,6.2988454E-4,2.5400727E-3,-2.4124172E-3,-5.621302E-4,-5.200136E-4,1.4506304E-4,1.3535374E-3,3.1563418E-3,3.8351186E-3,1.3458895E-3,-1.4716688E-4,1.3450008E-4,-2.3976045E-3,-8.571436E-4,5.094805E-4,-2.9780666E-4,-1.7238464E-3,-4.8397595E-4,5.516198E-3,-2.0929638E-2,4.802079E-3,3.1613253E-2,-5.1673306E-3,-1.7590402E-3,-8.221284E-4,7.255651E-4,1.190411E-2,3.797773E-3,1.2217704E-3,-1.6636994E-2,-2.3349628E-2,4.541401E-3,1.1950672E-2,4.4903304E-2,-1.16695445E-2,1.8097393E-2,1.4915788E-2,4.662865E-3,-3.7422724E-2,-4.7187614E-3,-2.1322619E-3,-2.3271127E-2,-3.1344201E-3,-6.894581E-3,1.09687755E-2,-6.1545405E-3,1.5651591E-2,5.608629E-3,-9.1057393E-4,-2.7101748E-3,3.9959536E-3,-6.7139193E-3,-1.2215665E-3,-3.2230894E-4,4.8644935E-5,4.2769103E-4,1.9015324E-3,2.035687E-4,-1.8925404E-2,1.736572E-3,7.452183E-5,3.7116438E-4,-4.1485312E-3,1.4392899E-2,-6.7706853E-3,-3.865921E-2,7.597589E-4,-4.5877352E-4,7.317499E-4,3.5008905E-3,1.2899817E-3,3.462791E-4,-1.2002792E-4,2.4292133E-4,-1.9191279E-3,-4.4870723E-4,-7.54729E-4,-2.8161106E-3,8.770581E-3,-9.229455E-3,-1.3775574E-2,1.881272E-2,6.005784E-2,2.0347219E-2,-3.9764424E-3,-2.3797644E-2,3.9684996E-3,3.6274504E-3,-6.5723485E-5,1.8161839E-3,-4.508986E-2,-2.0285791E-3,4.2505024E-4,-9.12535E-4,6.51105E-3,-8.348213E-3,-2.5206467E-3,-2.926537E-4,1.3083399E-2,-6.0486253E-3,-2.2149896E-2,1.1071366E-2,1.7711193E-3,6.315189E-4,7.1549295E-3,3.778688E-5,-8.4728433E-4,2.1451681E-4,-5.164926E-4,-2.107429E-3,3.0953677E-3,-1.3984021E-3,1.2088575E-3,-8.468787E-3,1.9409976E-3,5.7775987E-4,-1.35161625E-2,1.3472048E-2,-5.175723E-4,-4.180452E-3,1.701074E-2,2.004524E-3,4.984336E-3,-1.6959392E-2,-2.141818E-2,8.649031E-4,4.2605028E-3,1.4882308E-2,6.574396E-3,2.4875586E-3,2.6048284E-3,-9.78012E-4,-1.7987445E-2,5.714676E-3,-3.8854416E-2,-1.1634045E-2,-1.9491644E-3,9.0924633E-4,-4.9599186E-3,-2.2544076E-3,7.674481E-4,2.7894587E-4,-1.172932E-3,-3.9736847E-3,4.2539006E-3,2.1178683E-2,-1.9100418E-2,5.5706706E-3,-4.0345746E-3,-1.0648293E-2,1.7385032E-2,-1.3336837E-3,2.9795486E-4,8.945334E-4,-1.3266629E-4,7.10565E-5,-1.422558E-4,1.7443333E-4,1.0203959E-3,1.1281878E-2,2.4141479E-4,2.3781323E-7,-2.3048591E-4,-9.755144E-4,-5.4099964E-4,-1.5879724E-3,6.3117495E-4,1.7476472E-3,2.4402753E-2,7.728644E-3,-7.656908E-4,1.4661914E-3,9.6577965E-4,-1.3505692E-3,-2.084044E-3,-7.868234E-4,-2.7413685E-3,-1.006813E-3,7.6462696E-3,2.1126192E-2,-3.3022065E-2,-4.1266662E-4,-2.4221765E-3,1.4890188E-2,-1.0752818E-2,-4.9667347E-2,4.837703E-4,-2.0992655E-2,1.1288566E-4,-7.130624E-4,-6.639939E-5,-4.6351092E-4,8.224303E-3,-1.586398E-2,5.0884946E-3,2.368066E-2,4.6508704E-4,-2.8941307E-2,1.0376625E-2,-2.5667057E-3,8.240263E-4,-1.5838661E-3,-7.0864457E-4,2.107463E-2,-6.186913E-3,7.199593E-3,3.7579725E-3,-4.322666E-3,4.7733547E-4,1.5534025E-3,3.0051495E-3,9.828949E-4,-2.0678538E-4,9.211688E-3,7.1954064E-4,-3.3683437E-3,-2.130764E-4,1.0491023E-5,1.0547808E-2,-2.9699137E-3,2.515945E-3,1.0883069E-3,-3.7428223E-2,-4.3900707E-3,1.0162054E-3,-6.241659E-3,8.347655E-3,-9.691892E-3,1.674173E-2,5.1897252E-5,-2.7860832E-4,-1.4039663E-3,-5.8405767E-3,-2.5752406E-3,6.3714148E-3,-1.734042E-3,-5.7301554E-3,-2.499839E-2,1.90772E-2,4.0380647E-3,-1.945934E-2,-4.062318E-4,5.9325015E-4,1.3960333E-3,4.425011E-3,2.107059E-2,5.7356893E-3,-4.960545E-4,-3.2501647E-3,-1.2173534E-3,1.1399944E-3,4.5300063E-4,-3.9520488E-5,-2.921965E-4,-2.909824E-4,2.4849447E-4,-1.2591288E-4,1.9616191E-5,9.436252E-4,2.4714472E-3,-7.543032E-4,-3.8121943E-5,2.0780489E-4,8.7213406E-4,6.4672967E-3,-2.807754E-3,-8.512461E-3,1.9841709E-3,2.2004859E-4,9.898933E-4,2.4219537E-4,-5.197833E-4,1.2594911E-2,3.3048735E-4,8.552289E-6,-4.0169005E-4,-4.191143E-3,-1.7983962E-3,-8.6920516E-4,2.1069453E-4,-7.917142E-4,-2.1680207E-4,1.0421601E-3,7.258947E-5,1.5273514E-3,-1.32104E-2,1.792335E-3,5.646932E-4,1.8977044E-4,-1.8198584E-4,8.2301145E-4,-8.9356676E-5,-6.933867E-5,-7.1779493E-4,-5.5625767E-4,-2.653986E-3,4.8326794E-3,2.8567048E-2,1.9509349E-2,4.825102E-4,-2.1351196E-3,-6.6667097E-4,8.057891E-4,-3.2132266E-3,-3.9821295E-3,2.2098387E-2,7.2811315E-5,7.8754214E-4,2.5010584E-3,9.390182E-3,-7.2644226E-4,1.3191309E-3,-9.154693E-4,-2.0084181E-4,5.4657523E-4,-1.123058E-3,3.2170184E-4,-9.961729E-5,3.488198E-4,1.3297227E-3,-9.218745E-4,4.4375146E-4,-1.5003182E-3,-4.026182E-4,-1.8033125E-4,1.6692774E-4,1.1217395E-2,-3.7955146E-3,3.449139E-3,1.5906751E-3,7.007272E-4,2.332172E-3,7.6651108E-3,-4.7353217E-3,-7.49114E-4,-5.4900604E-4,3.8216228E-4,-7.857255E-4,2.3863588E-2,3.8905747E-3,3.5870008E-4,-8.664935E-5,1.109016E-3,4.0676747E-4,3.4396708E-4,-1.2411193E-4,-7.1786344E-6,-1.4495532E-4,1.2268196E-5,-1.5054937E-4,1.2204195E-3,3.1416962E-4,-1.0873868E-4,-5.238471E-4,1.3327955E-2,2.307315E-3,-9.956069E-3,2.4560653E-3,7.099984E-5,-1.2913917E-4,2.5078492E-2,-2.4519595E-3,7.586699E-3,-1.0991149E-3,1.6286307E-3,9.963685E-4,-2.7140721E-3,5.157267E-3,-1.135784E-2,6.236131E-4,8.3356304E-4,-2.2606167E-3,2.5621312E-2,-5.373832E-4,3.4088618E-4,-5.541854E-4,2.0660587E-4,8.162463E-4,-9.785292E-5,2.473082E-4,-1.8455352E-5,-4.3389E-4,6.158897E-4,2.6159137E-4,-7.785141E-3,-1.766075E-3,2.714046E-4,-4.371179E-3,3.0536331E-2,2.0943696E-2,-3.2945714E-4,-8.915934E-3,-4.99338E-4,-6.300863E-5,2.447306E-3,3.658268E-2,2.371026E-2,1.1102942E-2,-9.476311E-4,-2.2164597E-4,1.9058775E-3,3.993397E-3,2.4895411E-2,1.037551E-3,1.2867262E-3,2.6971087E-4,1.1110457E-3,2.6270156E-3],"categories":[],"categories_nodes":[],"categories_segments":[],"categories_sizes":[],"default_left":[0,0,0,0,0,0,0,0,0,0,0,0,0,0,0,0,0,0,0,0,0,0,0,0,0,0,0,0,0,0,0,0,0,0,0,0,0,0,0,0,0,0,0,0,0,0,0,0,0,0,0,0,0,0,0,0,0,0,0,0,0,0,0,0,0,0,0,0,0,0,0,0,0,0,0,0,0,0,0,0,0,0,0,0,0,0,0,0,0,0,0,0,0,0,0,0,0,0,0,0,0,0,0,0,0,0,0,0,0,0,0,0,0,0,0,0,0,0,0,0,0,0,0,0,0,0,0,0,0,0,0,0,0,0,0,0,0,0,0,0,0,0,0,0,0,0,0,0,0,0,0,0,0,0,0,0,0,0,0,0,0,0,0,0,0,0,0,0,0,0,0,0,0,0,0,0,0,0,0,0,0,0,0,0,0,0,0,0,0,0,0,0,0,0,0,0,0,0,0,0,0,0,0,0,0,0,0,0,0,0,0,0,0,0,0,0,0,0,0,0,0,0,0,0,0,0,0,0,0,0,0,0,0,0,0,0,0,0,0,0,0,0,0,0,0,0,0,0,0,0,0,0,0,0,0,0,0,0,0,0,0,0,0,0,0,0,0,0,0,0,0,0,0,0,0,0,0,0,0,0,0,0,0,0,0,0,0,0,0,0,0,0,0,0,0,0,0,0,0,0,0,0,0,0,0,0,0,0,0,0,0,0,0,0,0,0,0,0,0,0,0,0,0,0,0,0,0,0,0,0,0,0,0,0,0,0,0,0,0,0,0,0,0,0,0,0,0,0,0,0,0,0,0,0,0,0,0,0,0,0,0,0,0,0,0,0,0,0,0,0,0,0,0,0,0,0,0,0,0,0,0,0,0,0,0,0,0,0,0,0,0,0,0,0,0,0,0,0,0,0,0,0,0,0,0,0,0,0,0,0,0,0,0,0,0,0,0,0,0,0,0,0,0,0,0,0,0,0,0,0,0,0,0,0,0,0,0,0,0,0,0,0,0,0,0,0,0,0,0,0,0,0,0,0,0,0,0,0,0,0,0,0,0,0,0,0,0,0,0,0,0,0,0,0,0,0,0,0,0,0,0,0,0,0,0,0,0,0,0,0,0,0,0,0,0,0,0,0,0,0,0,0,0,0,0,0,0,0,0,0,0,0,0,0,0,0,0,0,0,0,0,0,0,0,0,0,0,0,0,0,0,0,0,0,0,0,0,0,0,0,0,0,0,0,0,0,0,0,0,0,0,0,0,0,0,0,0,0,0,0,0,0,0,0,0,0,0,0,0,0,0,0,0,0,0,0,0,0,0,0,0,0,0,0,0,0,0,0,0,0,0,0,0,0,0,0,0,0,0,0,0,0,0,0,0,0,0,0,0,0,0,0,0,0,0,0,0,0,0,0,0,0,0],"id":2,"left_children":[1,3,5,7,9,11,-1,13,15,17,19,21,-1,23,25,27,29,-1,-1,31,33,-1,-1,-1,35,37,39,41,43,45,47,-1,-1,49,51,53,55,57,59,61,63,65,67,69,71,73,75,77,79,81,-1,83,-1,85,87,-1,-1,89,91,93,95,97,99,-1,101,103,105,107,109,-1,-1,111,-1,-1,-1,113,-1,-1,-1,-1,-1,-1,-1,-1,-1,115,117,119,121,123,125,127,129,131,133,-1,-1,-1,-1,135,137,-1,-1,139,-1,-1,-1,141,143,145,147,149,151,153,155,157,159,161,163,165,-1,-1,167,169,171,-1,173,175,177,179,181,183,185,187,-1,189,-1,191,-1,-1,-1,193,-1,195,197,199,201,203,205,207,209,211,-1,213,215,217,219,221,-1,223,225,-1,-1,227,229,231,-1,-1,-1,233,235,237,239,-1,-1,-1,-1,241,243,245,247,249,251,-1,-1,253,255,-1,257,-1,-1,-1,-1,-1,-1,-1,-1,259,261,-1,-1,263,265,267,-1,-1,-1,-1,-1,-1,-1,269,-1,271,273,-1,-1,-1,-1,-1,-1,-1,275,-1,-1,-1,-1,-1,-1,-1,-1,-1,-1,277,279,281,283,-1,-1,-1,-1,285,-1,287,289,291,293,295,297,299,301,303,-1,305,307,309,311,-1,-1,313,315,317,-1,-1,-1,319,321,-1,-1,-1,-1,-1,-1,323,325,-1,-1,327,329,331,333,-1,-1,-1,-1,-1,-1,-1,-1,-1,-1,-1,-1,335,337,339,341,343,345,347,349,351,-1,-1,-1,353,-1,-1,-1,355,357,-1,-1,359,361,363,365,-1,-1,367,369,-1,371,-1,-1,373,-1,375,377,-1,-1,379,381,-1,-1,383,385,387,389,391,-1,-1,393,-1,-1,-1,-1,395,397,399,401,403,-1,-1,-1,-1,-1,-1,405,407,409,411,413,-1,415,417,419,-1,-1,-1,-1,-1,-1,421,423,-1,-1,-1,-1,-1,-1,-1,-1,425,427,429,-1,-1,431,-1,-1,-1,-1,433,435,437,439,441,443,445,447,449,451,-1,-1,-1,-1,453,455,457,459,461,463,465,467,469,-1,471,473,475,477,479,481,-1,-1,-1,-1,-1,483,-1,485,-1,-1,487,489,-1,-1,491,493,-1,495,497,499,501,503,-1,-1,-1,-1,505,-1,507,509,511,513,515,-1,517,-1,-1,519,521,-1,-1,-1,-1,-1,-1,-1,-1,-1,-1,-1,-1,-1,-1,-1,-1,-1,523,525,527,529,-1,-1,531,-1,533,-1,-1,-1,-1,-1,-1,-1,-1,-1,-1,-1,535,537,-1,-1,-1,-1,-1,539,-1,-1,-1,-1,541,543,545,547,-1,-1,-1,549,551,553,-1,-1,555,557,-1,559,-1,-1,-1,561,-1,-1,-1,-1,563,-1,-1,-1,-1,-1,565,567,-1,-1,-1,-1,569,571,573,-1,-1,-1,575,577,-1,-1,-1,-1,-1,-1,-1,-1,-1,-1,-1,-1,-1,-1,579,581,583,585,-1,-1,587,589,591,-1,-1,593,595,597,599,-1,-1,601,603,-1,-1,-1,-1,-1,-1,-1,-1,-1,-1,-1,605,-1,-1,607,609,611,-1,613,-1,-1,-1,615,617,619,-1,-1,-1,-1,621,-1,-1,-1,-1,-1],"loss_changes":[5.0300375E-2,2.9028593E-2,1.3549678E-2,2.9027784E-2,1.30877085E-2,1.8714266E-3,0E0,3.6956016E-2,1.984017E-2,4.2434921E-4,5.523041E-3,2.1807254E-4,0E0,1.7270649E-2,3.3531785E-2,1.7929047E-2,9.198411E-3,0E0,0E0,8.2270626E-4,3.495358E-3,0E0,0E0,0E0,1.2600537E-2,2.9419918E-2,2.1435272E-2,1.881575E-2,4.823441E-2,9.857412E-3,1.1399044E-3,0E0,0E0,4.06232E-5,2.0640232E-3,1.6589439E-2,8.9286827E-4,3.9512824E-2,2.0495083E-2,5.2977665E-3,1.0023963E-2,7.6389983E-3,1.7113404E-2,1.1245236E-3,3.275273E-3,2.587364E-3,5.1851007E-3,2.6439037E-4,3.8874132E-5,1.2942855E-6,0E0,2.954075E-4,0E0,8.947925E-3,2.8487528E-3,0E0,0E0,2.4815101E-2,1.9411163E-2,9.153429E-3,1.1157603E-3,7.3894544E-4,3.8075475E-3,0E0,2.7956162E-4,1.0504946E-3,6.867464E-4,1.1110378E-2,8.737429E-3,0E0,0E0,2.1174396E-3,0E0,0E0,0E0,3.818586E-3,0E0,0E0,0E0,0E0,0E0,0E0,0E0,0E0,0E0,3.778264E-3,4.7282414E-3,1.8642917E-3,1.353171E-4,1.044733E-2,1.0632325E-2,1.1629483E-2,1.6993916E-2,4.911311E-3,3.8212985E-3,0E0,0E0,0E0,0E0,3.3371057E-4,3.851275E-4,0E0,0E0,2.7923286E-4,0E0,0E0,0E0,2.4448182E-3,8.31674E-3,5.5563794E-3,2.4071718E-3,8.879951E-4,5.9437775E-4,2.4152962E-3,6.708144E-4,5.476167E-4,2.4659708E-3,2.7697464E-4,7.699649E-4,1.3851351E-4,0E0,0E0,1.4722745E-5,8.322831E-3,4.3044165E-3,0E0,4.5213389E-4,2.710916E-3,3.0809236E-3,1.2207278E-2,1.2519142E-2,9.795539E-4,4.6760663E-3,1.236897E-3,0E0,3.8741156E-5,0E0,4.5705114E-5,0E0,0E0,0E0,5.3742476E-4,0E0,2.7042832E-3,8.8677835E-3,1.661093E-4,2.2732741E-3,1.3271235E-3,7.437469E-5,6.541051E-5,1.5882577E-4,1.20827055E-4,0E0,2.0860028E-3,5.7247467E-5,7.9032034E-5,4.501581E-5,1.358448E-4,0E0,3.2522902E-4,7.928278E-6,0E0,0E0,2.9899436E-4,7.812669E-5,4.5772176E-6,0E0,0E0,0E0,5.6755603E-3,1.7948602E-3,5.590152E-4,2.8228888E-4,0E0,0E0,0E0,0E0,6.318772E-4,5.699769E-4,4.7635618E-3,1.2471534E-2,1.0829514E-2,1.5672361E-3,0E0,0E0,2.4985075E-3,2.3916434E-3,0E0,2.9873848E-4,0E0,0E0,0E0,0E0,0E0,0E0,0E0,0E0,8.9975465E-3,4.4341926E-3,0E0,0E0,1.337966E-4,5.404804E-4,4.1886233E-6,0E0,0E0,0E0,0E0,0E0,0E0,0E0,1.2227936E-5,0E0,1.8711854E-4,1.9331641E-3,0E0,0E0,0E0,0E0,0E0,0E0,0E0,2.5896188E-6,0E0,0E0,0E0,0E0,0E0,0E0,0E0,0E0,0E0,0E0,1.1749913E-3,5.5119907E-3,1.9235162E-4,2.3882091E-4,0E0,0E0,0E0,0E0,5.761045E-6,0E0,1.4613682E-5,3.8024737E-5,3.1968812E-4,2.9346803E-3,7.320545E-3,5.1043034E-3,9.328942E-3,3.4515592E-3,3.1524163E-4,0E0,1.7131399E-3,1.9688276E-4,7.527988E-4,3.199689E-4,0E0,0E0,7.995926E-3,1.0164472E-2,4.1984487E-5,0E0,0E0,0E0,1.1226343E-4,1.2368348E-4,0E0,0E0,0E0,0E0,0E0,0E0,3.900146E-5,1.0686172E-3,0E0,0E0,1.722546E-4,1.9042229E-4,2.0937468E-3,8.3679054E-4,0E0,0E0,0E0,0E0,0E0,0E0,0E0,0E0,0E0,0E0,0E0,0E0,2.08453E-3,1.4029918E-3,1.7276881E-3,2.3583742E-3,3.6508217E-4,1.6288189E-3,8.657075E-3,6.6906027E-3,2.9061976E-4,0E0,0E0,0E0,2.0349398E-4,0E0,0E0,0E0,4.5712222E-6,7.171731E-5,0E0,0E0,1.3919454E-2,3.8977186E-3,3.5467343E-3,1.4329702E-3,0E0,0E0,1.07250235E-5,5.53254E-6,0E0,9.9946865E-6,0E0,0E0,7.5289304E-4,0E0,5.810891E-6,9.231822E-6,0E0,0E0,1.2484449E-4,4.3843174E-6,0E0,0E0,9.778268E-4,7.826276E-4,1.6107317E-4,1.1828821E-4,2.0034052E-4,0E0,0E0,1.1487119E-3,0E0,0E0,0E0,0E0,6.856356E-3,2.8731385E-3,4.6315677E-3,2.6184914E-3,8.7792665E-5,0E0,0E0,0E0,0E0,0E0,0E0,7.867864E-6,7.7186977E-3,3.9857514E-3,2.3239637E-3,5.741438E-4,0E0,7.8714394E-4,8.160353E-4,3.3444088E-4,0E0,0E0,0E0,0E0,0E0,0E0,5.5744505E-4,1.7492729E-4,0E0,0E0,0E0,0E0,0E0,0E0,0E0,0E0,4.455382E-4,1.4980615E-4,4.1791608E-4,0E0,0E0,3.6302122E-6,0E0,0E0,0E0,0E0,4.9337506E-4,3.458853E-4,1.6018879E-3,8.647476E-4,1.7250704E-3,4.9365824E-4,1.1799694E-4,1.0036565E-3,1.2648504E-3,6.51543E-4,0E0,0E0,0E0,0E0,3.5575903E-3,5.998495E-4,5.899342E-4,3.7921406E-3,1.7143387E-4,8.193217E-5,2.204848E-6,3.4738987E-6,3.8238857E-5,0E0,1.7412382E-6,1.9040657E-4,3.64905E-5,5.257709E-6,4.628757E-4,3.6040673E-4,0E0,0E0,0E0,0E0,0E0,1.6764912E-5,0E0,1.0034049E-4,0E0,0E0,1.3629987E-4,1.3139543E-5,0E0,0E0,2.9233657E-4,1.0216379E-4,0E0,4.426326E-5,1.3469905E-4,5.33352E-4,1.0854518E-4,1.3818253E-5,0E0,0E0,0E0,0E0,1.0881314E-4,0E0,2.4191715E-5,1.5196716E-4,2.835868E-3,3.2361168E-3,1.4807936E-4,0E0,3.3844562E-4,0E0,0E0,2.1479279E-3,2.641041E-5,0E0,0E0,0E0,0E0,0E0,0E0,0E0,0E0,0E0,0E0,0E0,0E0,0E0,0E0,0E0,0E0,0E0,1.8518604E-4,1.5671997E-4,1.5030382E-5,7.104679E-5,0E0,0E0,2.5308264E-5,0E0,1.1178548E-5,0E0,0E0,0E0,0E0,0E0,0E0,0E0,0E0,0E0,0E0,0E0,3.260142E-5,1.0424724E-4,0E0,0E0,0E0,0E0,0E0,1.2052891E-5,0E0,0E0,0E0,0E0,5.9346145E-4,4.264051E-4,3.6086654E-4,1.8726994E-3,0E0,0E0,0E0,4.0770326E-5,1.5098952E-4,2.381973E-3,0E0,0E0,3.6020814E-5,4.537031E-5,0E0,3.1414602E-5,0E0,0E0,0E0,1.2688824E-6,0E0,0E0,0E0,0E0,2.013566E-6,0E0,0E0,0E0,0E0,0E0,9.472715E-6,1.3842306E-5,0E0,0E0,0E0,0E0,6.063959E-4,1.1132408E-3,4.8731067E-6,0E0,0E0,0E0,2.2994503E-3,5.234241E-4,0E0,0E0,0E0,0E0,0E0,0E0,0E0,0E0,0E0,0E0,0E0,0E0,0E0,0E0,3.4858426E-4,1.8572577E-4,4.566908E-4,3.793602E-4,0E0,0E0,1.2452081E-3,9.132869E-5,5.385984E-6,0E0,0E0,1.1169056E-5,1.9749405E-5,4.252812E-6,2.2280286E-4,0E0,0E0,9.5858246E-5,8.778274E-4,0E0,0E0,0E0,0E0,0E0,0E0,0E0,0E0,0E0,0E0,0E0,3.1560718E-5,0E0,0E0,1.0820004E-5,2.0453148E-4,7.440746E-4,0E0,1.2784207E-5,0E0,0E0,0E0,2.367422E-6,1.842007E-4,1.1360145E-4,0E0,0E0,0E0,0E0,1.8189661E-4,0E0,0E0,0E0,0E0,0E0],"parents":[2147483647,0,0,1,1,2,2,3,3,4,4,5,5,7,7,8,8,9,9,10,10,11,11,13,13,14,14,15,15,16,16,19,19,20,20,24,24,25,25,26,26,27,27,28,28,29,29,30,30,33,33,34,34,35,35,36,36,37,37,38,38,39,39,40,40,41,41,42,42,43,43,44,44,45,45,46,46,47,47,48,48,49,49,51,51,53,53,54,54,57,57,58,58,59,59,60,60,61,61,62,62,64,64,65,65,66,66,67,67,68,68,71,71,75,75,85,85,86,86,87,87,88,88,89,89,90,90,91,91,92,92,93,93,94,94,99,99,100,100,103,103,107,107,108,108,109,109,110,110,111,111,112,112,113,113,114,114,115,115,116,116,117,117,118,118,119,119,122,122,123,123,124,124,126,126,127,127,128,128,129,129,130,130,131,131,132,132,133,133,135,135,137,137,141,141,143,143,144,144,145,145,146,146,147,147,148,148,149,149,150,150,151,151,153,153,154,154,155,155,156,156,157,157,159,159,160,160,163,163,164,164,165,165,169,169,170,170,171,171,172,172,177,177,178,178,179,179,180,180,181,181,182,182,185,185,186,186,188,188,197,197,198,198,201,201,202,202,203,203,211,211,213,213,214,214,222,222,233,233,234,234,235,235,236,236,241,241,243,243,244,244,245,245,246,246,247,247,248,248,249,249,250,250,251,251,253,253,254,254,255,255,256,256,259,259,260,260,261,261,265,265,266,266,273,273,274,274,277,277,278,278,279,279,280,280,293,293,294,294,295,295,296,296,297,297,298,298,299,299,300,300,301,301,305,305,309,309,310,310,313,313,314,314,315,315,316,316,319,319,320,320,322,322,325,325,327,327,328,328,331,331,332,332,335,335,336,336,337,337,338,338,339,339,342,342,347,347,348,348,349,349,350,350,351,351,358,358,359,359,360,360,361,361,362,362,364,364,365,365,366,366,373,373,374,374,383,383,384,384,385,385,388,388,393,393,394,394,395,395,396,396,397,397,398,398,399,399,400,400,401,401,402,402,407,407,408,408,409,409,410,410,411,411,412,412,413,413,414,414,415,415,417,417,418,418,419,419,420,420,421,421,422,422,428,428,430,430,433,433,434,434,437,437,438,438,440,440,441,441,442,442,443,443,444,444,449,449,451,451,452,452,453,453,454,454,455,455,457,457,460,460,461,461,479,479,480,480,481,481,482,482,485,485,487,487,499,499,500,500,506,506,511,511,512,512,513,513,514,514,518,518,519,519,520,520,523,523,524,524,526,526,530,530,535,535,541,541,542,542,547,547,548,548,549,549,553,553,554,554,569,569,570,570,571,571,572,572,575,575,576,576,577,577,580,580,581,581,582,582,583,583,586,586,587,587,599,599,602,602,603,603,604,604,606,606,610,610,611,611,612,612,617,617],"right_children":[2,4,6,8,10,12,-1,14,16,18,20,22,-1,24,26,28,30,-1,-1,32,34,-1,-1,-1,36,38,40,42,44,46,48,-1,-1,50,52,54,56,58,60,62,64,66,68,70,72,74,76,78,80,82,-1,84,-1,86,88,-1,-1,90,92,94,96,98,100,-1,102,104,106,108,110,-1,-1,112,-1,-1,-1,114,-1,-1,-1,-1,-1,-1,-1,-1,-1,116,118,120,122,124,126,128,130,132,134,-1,-1,-1,-1,136,138,-1,-1,140,-1,-1,-1,142,144,146,148,150,152,154,156,158,160,162,164,166,-1,-1,168,170,172,-1,174,176,178,180,182,184,186,188,-1,190,-1,192,-1,-1,-1,194,-1,196,198,200,202,204,206,208,210,212,-1,214,216,218,220,222,-1,224,226,-1,-1,228,230,232,-1,-1,-1,234,236,238,240,-1,-1,-1,-1,242,244,246,248,250,252,-1,-1,254,256,-1,258,-1,-1,-1,-1,-1,-1,-1,-1,260,262,-1,-1,264,266,268,-1,-1,-1,-1,-1,-1,-1,270,-1,272,274,-1,-1,-1,-1,-1,-1,-1,276,-1,-1,-1,-1,-1,-1,-1,-1,-1,-1,278,280,282,284,-1,-1,-1,-1,286,-1,288,290,292,294,296,298,300,302,304,-1,306,308,310,312,-1,-1,314,316,318,-1,-1,-1,320,322,-1,-1,-1,-1,-1,-1,324,326,-1,-1,328,330,332,334,-1,-1,-1,-1,-1,-1,-1,-1,-1,-1,-1,-1,336,338,340,342,344,346,348,350,352,-1,-1,-1,354,-1,-1,-1,356,358,-1,-1,360,362,364,366,-1,-1,368,370,-1,372,-1,-1,374,-1,376,378,-1,-1,380,382,-1,-1,384,386,388,390,392,-1,-1,394,-1,-1,-1,-1,396,398,400,402,404,-1,-1,-1,-1,-1,-1,406,408,410,412,414,-1,416,418,420,-1,-1,-1,-1,-1,-1,422,424,-1,-1,-1,-1,-1,-1,-1,-1,426,428,430,-1,-1,432,-1,-1,-1,-1,434,436,438,440,442,444,446,448,450,452,-1,-1,-1,-1,454,456,458,460,462,464,466,468,470,-1,472,474,476,478,480,482,-1,-1,-1,-1,-1,484,-1,486,-1,-1,488,490,-1,-1,492,494,-1,496,498,500,502,504,-1,-1,-1,-1,506,-1,508,510,512,514,516,-1,518,-1,-1,520,522,-1,-1,-1,-1,-1,-1,-1,-1,-1,-1,-1,-1,-1,-1,-1,-1,-1,524,526,528,530,-1,-1,532,-1,534,-1,-1,-1,-1,-1,-1,-1,-1,-1,-1,-1,536,538,-1,-1,-1,-1,-1,540,-1,-1,-1,-1,542,544,546,548,-1,-1,-1,550,552,554,-1,-1,556,558,-1,560,-1,-1,-1,562,-1,-1,-1,-1,564,-1,-1,-1,-1,-1,566,568,-1,-1,-1,-1,570,572,574,-1,-1,-1,576,578,-1,-1,-1,-1,-1,-1,-1,-1,-1,-1,-1,-1,-1,-1,580,582,584,586,-1,-1,588,590,592,-1,-1,594,596,598,600,-1,-1,602,604,-1,-1,-1,-1,-1,-1,-1,-1,-1,-1,-1,606,-1,-1,608,610,612,-1,614,-1,-1,-1,616,618,620,-1,-1,-1,-1,622,-1,-1,-1,-1,-1],"split_conditions":[2.2280974E0,1.6207323E0,-4.224488E-2,1.623022E-1,-2.021868E-1,-1.2293688E0,-8.543088E-3,-1.3895642E0,1.1920004E0,-5.8475405E-1,-1.1850843E0,-6.5101373E-1,-2.9940372E-3,-3.7621182E-1,1.37023E0,1.0229341E0,5.5774295E-1,3.0194062E-3,3.2911496E-4,-2.1959186E0,-1.032992E0,1.0345257E-3,-4.7689016E-4,6.0981875E-3,8.5353255E-1,4.0630704E-1,1.6128274E0,-1.5892944E0,-4.8777914E-1,-1.0770038E0,1.0032548E0,2.008654E-3,-4.9606734E-4,2.9135364E-1,-5.8338076E-1,-1.2044524E0,-4.7892824E-1,-1.19671E0,1.4136155E0,6.471444E-2,-1.0699722E0,8.3455974E-1,6.993514E-1,-8.9150506E-1,6.7769986E-1,-1.4549797E0,3.1918805E-2,-1.492797E0,-1.0977395E0,2.9771096E-1,-8.809703E-4,4.1144264E-1,-4.1401973E-3,6.8741715E-1,-1.5647844E0,1.9987035E-3,5.2703447E-3,-1.1690997E0,-1.3518647E0,7.94418E-1,7.8850365E-1,-2.5342652E-1,6.449912E-1,-9.210311E-3,1.235543E-1,1.583403E0,-6.2249464E-1,-1.896584E0,6.130113E-1,1.1153086E-2,4.884781E-3,7.304423E-1,-1.6137911E-3,8.9807063E-4,-3.764663E-3,1.2592864E0,3.4652655E-3,-5.595698E-4,-2.9909648E-3,-4.8349565E-4,1.6632954E-4,-2.3452104E-4,-4.2843003E-5,-1.6542329E-3,1.4004778E-4,3.8871786E-1,6.7825615E-1,-1.0942323E0,-5.35329E-2,5.4870206E-1,-6.6755116E-1,-9.002598E-1,-9.6324325E-2,-1.542083E0,4.23889E-1,4.171564E-3,1.0850942E-3,-3.907238E-4,1.8042781E-3,1.2880629E0,-9.4597864E-1,-8.229267E-4,-3.0165776E-3,-2.7962953E-1,1.2280095E-3,8.0136454E-4,-1.2006856E-3,3.2778688E-2,-1.474881E0,-5.632265E-1,2.2046413E-1,3.508407E-1,4.8756167E-1,1.2536656E0,4.4768256E-1,6.017337E-1,9.9088645E-1,7.863385E-1,-1.1367925E0,1.9720235E-1,-3.997104E-3,1.4284939E-3,-2.464267E-2,-1.1904461E0,2.2539635E-1,-7.982909E-3,-1.0459468E0,6.9995865E-2,-1.5932837E0,-1.24325015E-1,1.766335E0,7.664504E-1,-1.6031659E-1,4.1700473E-1,-1.9493828E-3,4.6731135E-1,-6.888094E-4,-1.3807698E0,1.2433941E-3,4.6959207E-3,1.770365E-3,-1.3329749E0,-4.056026E-3,-1.4549797E0,1.0106518E0,-4.6763808E-1,-7.032474E-2,-6.85465E-1,-3.4579659E-1,-7.8036326E-1,-7.814251E-1,-4.7998193E-1,1.130742E-3,-1.425618E0,-1.2637893E0,6.6120833E-1,1.1210076E-1,1.5954547E-1,-9.748894E-4,1.5585755E0,4.1998708E-1,7.098033E-4,2.3012E-3,7.632784E-1,4.3570167E-1,1.6890633E0,-5.703487E-4,-8.086367E-5,3.286378E-4,-2.7489755E-1,-1.4682162E-1,1.3291617E-1,-1.3318328E0,2.8002472E-4,-1.8581542E-3,5.9789363E-3,2.5235058E-3,1.8285333E-1,-1.2043484E0,-1.95949E-1,-8.48581E-2,1.349414E0,2.2898793E0,-3.4118033E-4,2.120715E-3,6.626737E-1,7.162496E-1,-1.0758446E-3,-6.183394E-1,-3.784862E-3,-1.5134993E-3,6.588036E-5,-6.562592E-4,1.0189844E-3,-1.1139421E-3,1.1794564E-3,5.37377E-3,2.0958567E-1,8.3275056E-1,2.386792E-3,7.465362E-4,3.3021954E-1,4.1856202E-1,1.0755113E0,-3.943777E-3,-6.852393E-4,1.547645E-4,8.317098E-4,3.1774545E-3,-1.20741504E-4,1.1804062E-3,1.0755113E0,-5.3430814E-4,-1.3334001E0,-1.4456517E0,6.2988454E-4,2.5400727E-3,-2.4124172E-3,-5.621302E-4,-5.200136E-4,1.4506304E-4,1.3535374E-3,3.52581E-2,3.8351186E-3,1.3458895E-3,-1.4716688E-4,1.3450008E-4,-2.3976045E-3,-8.571436E-4,5.094805E-4,-2.9780666E-4,-1.7238464E-3,-4.8397595E-4,-1.3127191E0,-1.0734844E0,-1.2093242E0,-1.2169161E0,-5.1673306E-3,-1.7590402E-3,-8.221284E-4,7.255651E-4,-1.1825455E0,3.797773E-3,-1.261787E0,-1.182977E0,-1.2823578E0,-8.6400144E-2,-4.1371405E-2,5.0663817E-1,7.14892E-2,1.7441994E-1,6.131718E-1,4.662865E-3,9.74276E-1,5.0311077E-1,6.793645E-1,1.3342879E0,-3.1344201E-3,-6.894581E-3,7.250329E-1,3.2972187E-1,5.015746E-1,5.608629E-3,-9.1057393E-4,-2.7101748E-3,-1.2288152E-1,3.8915637E-1,-1.2215665E-3,-3.2230894E-4,4.8644935E-5,4.2769103E-4,1.9015324E-3,2.035687E-4,-1.4004041E0,5.6386656E-1,7.452183E-5,3.7116438E-4,-1.3090913E0,3.9093348E-1,-2.840851E-2,-1.6650407E-1,7.597589E-4,-4.5877352E-4,7.317499E-4,3.5008905E-3,1.2899817E-3,3.462791E-4,-1.2002792E-4,2.4292133E-4,-1.9191279E-3,-4.4870723E-4,-7.54729E-4,-2.8161106E-3,-2.766172E-1,-1.2162558E0,2.0603762E0,-7.85182E-3,8.0303717E-1,3.3893946E-1,-3.2519558E-1,3.461646E-1,-3.320305E-1,3.6274504E-3,-6.5723485E-5,1.8161839E-3,8.9901674E-1,-2.0285791E-3,4.2505024E-4,-9.12535E-4,-3.7759054E-2,2.2539635E-1,-2.5206467E-3,-2.926537E-4,-1.1897632E0,3.6754936E-1,-2.3548621E-1,8.746432E-1,1.7711193E-3,6.315189E-4,7.5513136E-1,3.532068E-1,-8.4728433E-4,4.4024038E-1,-5.164926E-4,-2.107429E-3,8.507732E-1,-1.3984021E-3,-1.4005525E0,-1.4116398E0,1.9409976E-3,5.7775987E-4,-1.1669437E-2,-1.3403648E0,-5.175723E-4,-4.180452E-3,-7.2716236E-1,6.2967545E-1,-6.3155904E-2,-2.8472014E-2,-7.183761E-1,8.649031E-4,4.2605028E-3,3.2641384E-1,6.574396E-3,2.4875586E-3,2.6048284E-3,-9.78012E-4,3.5157102E-1,2.2511275E-1,-7.030477E-1,-2.4105084E-1,8.6878145E-1,9.0924633E-4,-4.9599186E-3,-2.2544076E-3,7.674481E-4,2.7894587E-4,-1.172932E-3,7.3759156E-1,9.5264025E-2,-1.2708757E0,-9.1514087E-1,7.034743E-1,-4.0345746E-3,3.5582945E-2,1.6251136E-1,5.1012194E-1,2.9795486E-4,8.945334E-4,-1.3266629E-4,7.10565E-5,-1.422558E-4,1.7443333E-4,4.131684E-1,-1.2110881E0,2.4141479E-4,2.3781323E-7,-2.3048591E-4,-9.755144E-4,-5.4099964E-4,-1.5879724E-3,6.3117495E-4,1.7476472E-3,3.0590677E-1,-1.3915195E0,-7.3835105E-1,1.4661914E-3,9.6577965E-4,-9.037379E-2,-2.084044E-3,-7.868234E-4,-2.7413685E-3,-1.006813E-3,4.241207E-1,1.151463E0,1.2923123E0,-3.9571735E-1,-2.602443E-1,1.2418394E0,5.835067E-1,3.1549624E-1,1.0659735E0,-4.353694E-1,1.1288566E-4,-7.130624E-4,-6.639939E-5,-4.6351092E-4,6.2586904E-1,1.15663834E-1,-9.660382E-2,-1.3594254E0,-9.6075946E-1,1.4878199E-1,3.000911E-1,3.9647663E-1,-5.2113193E-1,-1.5838661E-3,4.8828892E-2,-3.9571735E-1,6.0192496E-1,4.478746E-2,7.23214E-1,1.5549996E0,4.7733547E-4,1.5534025E-3,3.0051495E-3,9.828949E-4,-2.0678538E-4,-1.5312897E0,7.1954064E-4,-1.9585444E-1,-2.130764E-4,1.0491023E-5,3.6781773E-1,3.6388686E-1,2.515945E-3,1.0883069E-3,1.1141644E-1,-1.3521143E0,1.0162054E-3,3.8031065E-1,-1.6031659E-1,-3.2833084E-1,1.118783E0,-8.301435E-1,-2.7860832E-4,-1.4039663E-3,-5.8405767E-3,-2.5752406E-3,4.6850783E-1,-1.734042E-3,-7.98603E-1,8.513296E-2,-3.313489E-1,-1.3850197E0,-7.888309E-4,-4.062318E-4,-9.697182E-1,1.3960333E-3,4.425011E-3,-1.2657655E0,-1.0041727E0,-4.960545E-4,-3.2501647E-3,-1.2173534E-3,1.1399944E-3,4.5300063E-4,-3.9520488E-5,-2.921965E-4,-2.909824E-4,2.4849447E-4,-1.2591288E-4,1.9616191E-5,9.436252E-4,2.4714472E-3,-7.543032E-4,-3.8121943E-5,2.0780489E-4,8.7213406E-4,-6.813638E-1,-2.2883706E-1,-1.0695778E0,-1.1207051E0,2.2004859E-4,9.898933E-4,-1.3973026E0,-5.197833E-4,-4.6785036E-1,3.3048735E-4,8.552289E-6,-4.0169005E-4,-4.191143E-3,-1.7983962E-3,-8.6920516E-4,2.1069453E-4,-7.917142E-4,-2.1680207E-4,1.0421601E-3,7.258947E-5,-9.6075946E-1,3.9720944E-1,1.792335E-3,5.646932E-4,1.8977044E-4,-1.8198584E-4,8.2301145E-4,-1.9224523E-1,-6.933867E-5,-7.1779493E-4,-5.5625767E-4,-2.653986E-3,-1.2418486E0,1.0659735E0,9.412155E-2,-5.0057296E-2,-2.1351196E-3,-6.6667097E-4,8.057891E-4,-7.7081364E-1,-1.2368225E0,